New	0.144130229505	-0.0254937240309	0.456929144197	-0.144455926601	0.121534839051	0.0752804986005	-0.0513839667769	0.126428530566	-0.0943747482086	-0.0858749186815	0.046946910003	-0.112488200746	0.147616958974	0.0685730324863	-0.117110546639	0.0100966099808	-0.0296985517755	-0.185519701193	-0.115802405458	0.2702417098	0.0966702745184	0.0471972561907	0.131764033691	0.0145847242009	0.14628328907	0.0817503828886	0.104050546012	0.0808988764476	0.144126935476	-0.0254871359734	0.00153089987801	0.00617218643662	0.284749436078	-0.244750044537	0.0919239907923	-0.0631177090641	0.076024949106	-0.0415537613741	0.0807448806019	0.0286473448393	-0.125873486715	-0.231022179574	0.197912249237	-0.330199209998	0.00852906403257	0.0147391318002	0.0658356945656	0.0912618910064	0.137944043446	-0.054288888412
American	0.146547118742	-0.0540192864527	0.474398073731	-0.0804783566616	0.027266010743	-0.0577181011373	-0.0264457156264	0.120711262386	-0.164116893178	0.000350456621103	0.0971193805836	-0.092551708664	0.0341982531443	0.146753507745	-0.213830338466	-0.0392483087733	-0.080084194134	-0.0847145921232	0.0762267431959	0.17095929566	0.0633306679711	-0.0342124170955	0.298931808799	0.134448271627	-0.0925322838166	0.30159139415	-0.0740276886012	0.108459849282	0.166807234537	0.168755789538	0.212655539885	-0.026803051881	0.142878655381	-0.0479898947693	-0.000366239309583	-0.110122292469	0.0103890558626	0.0869164795082	0.122064122067	0.0194212052002	0.0428690193842	0.0549213278019	0.187707560927	-0.333891273149	0.0351448097687	-0.122824928589	-0.0125423811292	-0.0476831440547	-0.0154986000866	-0.0350359496867
United	0.122268187615	-0.128713065861	0.509035626091	0.0249498573496	-0.0323380804057	-0.0287370051778	-0.126523073967	-0.00968246281234	-0.12410491694	-0.0663224902661	-0.0286359044204	-0.0948222823827	0.0744782136247	0.184847196139	-0.147303016808	-0.109529885567	-0.0934190668116	-0.03623301659	0.0751296644197	0.122169840575	-0.065165535684	0.122909410318	0.285740244626	0.12876027244	0.16347441734	0.197136248908	-0.133163466129	0.0328412238639	-0.0408344779119	-0.0596329245844	0.0328435841929	-0.0291622577801	0.0785580422448	-0.231522701469	0.0866937028072	-0.286952273551	-0.103259671665	-0.14004146474	0.152385198463	-0.00684770772252	-0.0199986739524	0.0612269334137	0.249332563692	-0.219179361134	0.07255375874	-0.0889065112141	0.0430169954304	0.089569763654	0.0855190457578	0.0111206899298
States	0.142909188178	-0.169602401418	0.525372447125	0.100172305343	-0.0697245204105	-0.0236072380169	-0.101045373654	-0.0370592931473	-0.161617416906	-0.0772090969374	-0.0236903873799	-0.087628845979	-0.0303631237625	0.122432145727	-0.144824269189	-0.107698834503	-0.00365781606967	-0.0657896657813	0.106924411572	0.101028743782	-0.0149487436648	0.103702373755	0.346479238245	0.148910304478	0.0552773185854	0.167473021821	-0.110386826638	0.0557369077919	0.00430335748804	0.0103475602764	-0.0028267003911	-0.0222292263006	0.0350164644785	-0.228031080862	0.00621276922435	-0.202383281886	-0.156591415863	-0.0924428161464	0.166262820637	-0.00938567332694	-0.0699509134489	0.0188461810806	0.256013109228	-0.255080702508	0.0817739969673	-0.155891071455	0.0660512083232	0.0674575664132	0.0411702732454	0.0165822506965
May	0.132536098542	-0.0116539239375	0.306098633985	0.0453128583217	0.0210697284781	-0.0582924840531	-0.194612419378	0.244052942771	-0.085111521938	-0.0889113206365	0.0286874448063	-0.217566516693	0.357296262294	0.240954605549	-0.245443786436	-0.103270573552	-0.0351550404112	-0.0682427970619	0.130596941509	-0.0147742627189	0.01704473735	-0.0756737158382	0.0595258655789	0.175401606952	0.207474272057	0.108830496988	0.213064393712	0.0287400759872	-0.0561113098683	-0.008769994067	-0.0370933346383	0.201832813431	0.0492239590257	-0.18057197337	0.147707252133	-0.0135831586991	-0.070771682163	-0.111295534427	0.0390989277525	-0.0430199507283	-0.0443974208968	-0.107891332392	-0.11928555165	-0.298286786252	-0.0101543666855	-0.0729683868602	-0.066446865865	0.110440062036	0.182765226842	-0.0730011734974
June	0.136894117596	-0.0325175852315	0.325957494234	0.051526433311	0.0246789554464	-0.0709786389383	-0.20858691243	0.205548759985	-0.107436895399	-0.104225756628	0.0196132324052	-0.173779500788	0.353282072658	0.232328751826	-0.19445969577	-0.101829575662	-0.0125664955812	-0.0552479885266	0.133383562986	0.014821724726	-0.00514602286675	-0.0633911596716	0.0736170007616	0.175049775689	0.203961129923	0.128152114773	0.210799001775	0.0159886349578	-0.0351328822113	-0.0189785220815	-0.00635351013803	0.189955644381	0.0150634784563	-0.184296215183	0.166785300552	-0.0233053158764	-0.101672393024	-0.119075671718	0.0447701426647	-0.0377285313615	-0.054539812405	-0.103638457371	-0.138292530516	-0.336701012923	-0.0172533572111	-0.0865204993344	-0.0498585034226	0.135231740355	0.170598688015	-0.0617159686288
March	0.118818674053	-0.0106139131727	0.312005542388	0.0372162992885	0.0126530981788	-0.0447520283596	-0.2060101474	0.197966008263	-0.127013800744	-0.100695049439	0.00801470936016	-0.184721755426	0.33114172195	0.22379980802	-0.18820641167	-0.121623459789	-0.00880760727408	-0.0458038230104	0.134973915735	0.014109232379	0.0258448892384	-0.0495230644355	0.0993523691627	0.213255843883	0.20885076069	0.11923538264	0.235458265028	0.00871889142358	-0.0460810600432	-0.038010476758	-0.00850819127862	0.186781413321	0.0300000325829	-0.17451857958	0.151632875779	-0.0381111351268	-0.0938971973935	-0.0990887807223	0.0471759330637	-0.0117075066376	-0.0324657361011	-0.111440330313	-0.159656968546	-0.352721852587	0.00787609084374	-0.0726501777151	-0.0607852857465	0.136481658675	0.159684265731	-0.0924700664521
July	0.123841859294	-0.0452340904064	0.314721034915	0.0471194706288	0.0400822642486	-0.0800588544177	-0.213497294748	0.204467745358	-0.100288137952	-0.104625070903	0.0266281497432	-0.213342220184	0.340847877135	0.228188569208	-0.194524072223	-0.119317634072	-0.0161105718521	-0.0564922459925	0.128082139124	0.0135550633211	-0.0293877037529	-0.0468037370987	0.0639951056333	0.178002831997	0.212302232597	0.143266129719	0.213636045673	8.50547468729e-05	-0.0281767475335	-0.00313714553744	-0.0142239029215	0.216989694203	0.020235297506	-0.178506287368	0.145222818466	-0.0159915811204	-0.0874092169114	-0.111432457639	0.0203435490021	-0.0456198437533	-0.0526995775069	-0.114848823305	-0.136106925621	-0.313132057599	0.001550316068	-0.10305628335	-0.064587052306	0.141755763608	0.17429392955	-0.0787727235484
April	0.126206966202	-0.0211218134047	0.303015421537	0.0544187614936	0.0245782809388	-0.0495071189926	-0.209081059308	0.189830734131	-0.125655297758	-0.105206417377	0.00997315777576	-0.197231716438	0.325599668703	0.252270464449	-0.2001800683	-0.121677050937	-0.0137584060389	-0.033603525444	0.126856841876	-0.00372333500898	0.00771908833627	-0.0445950495037	0.0781545951878	0.172520215255	0.198832067311	0.128589132029	0.234635434723	0.0169633776647	-0.0414131352277	-0.0165773805491	-0.00516698130087	0.222855263902	0.0300321981487	-0.182252551822	0.146459859108	-0.0360027707898	-0.0921978021959	-0.0982883584537	0.0447658446876	-0.00889544016537	-0.0342896950953	-0.122624537219	-0.149207099641	-0.349218934685	-0.00199061786833	-0.0725324447219	-0.0462167497748	0.109144954318	0.173868643232	-0.100655579703
North	0.0535001922888	0.0116097352022	0.354428567177	-0.201184326209	-0.0326764389917	-0.0411603989017	-0.100533235543	0.185151604891	-0.0325364608934	-0.0112585832487	-0.0653645428249	-0.0707915097842	0.0205027690373	0.313851410352	-0.0130332481038	-0.218367040008	-0.0642676454859	0.109744437987	0.0516740412367	0.137857108292	-0.0997758253161	0.0958133993217	0.158590358508	0.0906064554077	0.0800369022806	0.18476183829	0.0541023394529	0.185635896932	0.125276375592	-0.0621832589766	-0.0119801944795	-0.066187919742	0.184084875245	-0.398064325897	0.0551811361758	-0.222956954029	0.0268009789876	-0.0841521779225	0.110185690785	-0.0206769371883	-0.0636578558394	-0.237231099929	0.214200278169	-0.20054235769	-0.0115457796917	0.0967144077704	-0.00553154829713	-0.00313583118997	0.09782699231	-0.056197184096
January	0.126592048831	0.00651463932139	0.308089129163	0.0534075529699	0.00113955894975	-0.0523618745662	-0.1913034063	0.210618909543	-0.134653202505	-0.104511260575	-0.0015473525717	-0.167439725888	0.34949715573	0.218185094802	-0.141091982992	-0.107350308874	-0.00379755191014	-0.0785323341098	0.108189366255	0.0249399538149	-0.00616971213653	-0.0366624487852	0.0925972325264	0.176627865225	0.2269822049	0.135550516117	0.279377608232	-0.00591237885402	-0.0643681067227	-0.0300459658357	0.0152534931872	0.206497385927	-0.0134840125378	-0.190218331596	0.129842243629	-0.0590357755283	-0.0986571379528	-0.102940856976	0.0168083897314	-0.0245992177258	-0.0731249823005	-0.0799816150397	-0.164953567856	-0.344166920083	0.020561516026	-0.0528296008582	-0.0441649293882	0.122378321107	0.146445269666	-0.108171763652
September	0.129221549153	0.00071033395142	0.326850771907	0.0494233915353	0.0217928070051	-0.0763214841265	-0.213722313542	0.186474806529	-0.103850227136	-0.12068134936	0.0124336138983	-0.202380406652	0.33632799891	0.247382001299	-0.183681621736	-0.113606133446	-0.0340938990924	-0.0126534893146	0.102412940743	0.00508312759837	-0.0362138219528	-0.0531442290061	0.0741065375881	0.197895544721	0.161029766592	0.13040913207	0.229140437936	-0.0148893154952	-0.0203806614052	-0.00372254193138	-0.00289161739312	0.210415659995	0.0249281622628	-0.179445184936	0.176268070394	-0.0221797195593	-0.0887640464429	-0.101099227742	0.0593203419587	-0.0342115068732	-0.0124532151951	-0.109828196545	-0.143658330361	-0.347169220501	-0.0163922236216	-0.0729364253922	-0.0565855349399	0.127751878008	0.152424797297	-0.0997663395597
October	0.121474021597	-0.000795880912256	0.311436536348	0.0424757538647	0.0363452283263	-0.0671451003337	-0.214852304578	0.188831102971	-0.130581167134	-0.107495966404	0.013747033939	-0.191236516573	0.345115288593	0.253437931325	-0.190083525884	-0.126858170777	-0.0267303437702	-0.00711511611935	0.108247420152	0.01852358876	0.00126257769387	-0.0393404654225	0.0915986577196	0.202862893876	0.185119530742	0.10641278983	0.23056428852	-0.00045442642199	-0.0308679936591	-0.00974393489013	-0.00426246906436	0.197298074228	0.0459414957851	-0.167161224756	0.169446050342	-0.0306632055881	-0.0880614092207	-0.10089197423	0.0691075116421	-0.0292098026462	-0.0245432579459	-0.115153517042	-0.152964841786	-0.338013712181	0.00521532595665	-0.0830009436648	-0.054777424063	0.133944938134	0.163428496735	-0.0765302329837
August	0.11310225569	-0.012217722516	0.32167701963	0.0508546496696	0.015715036055	-0.0828756559351	-0.222049333509	0.223625581532	-0.103063152788	-0.118793438756	0.039143563175	-0.216117117084	0.320319777311	0.260868836018	-0.197029732061	-0.127276626854	-0.00821800904274	-0.0219725839715	0.113669044149	0.0106075857958	-0.0240084474488	-0.0678705880839	0.0552178194191	0.173981605566	0.178246498094	0.142573561109	0.215960805469	-0.000521885935086	-0.0259562003137	0.0284529500713	-0.0100585889031	0.218762129892	0.0152804135149	-0.169173223058	0.139005928523	-0.0152461012091	-0.0938399202677	-0.0966992790841	0.0187650187925	-0.0293912433718	-0.0319235762614	-0.119014986114	-0.146772370677	-0.319639461718	-0.0133263065194	-0.100624437424	-0.0708926126464	0.137018780048	0.174994030391	-0.0651938046231
November	0.126433529348	0.00331194382217	0.310955570517	0.0622906540912	0.0406660564831	-0.0263371146884	-0.212755316576	0.196403042856	-0.109018678933	-0.105999102137	0.0283101696252	-0.19399228237	0.336933986353	0.211045053967	-0.199904264753	-0.140697406804	-0.0328562233982	-0.026162201467	0.103677910741	0.0135076101465	0.0197415342562	-0.0561817887098	0.0957970983775	0.184934396976	0.219070359861	0.0942765363395	0.223920188045	0.00587184529155	-0.0312684845433	-0.0357198992786	-0.0160539917534	0.197936279765	0.055338487285	-0.179603768681	0.156892512123	-0.0343877703245	-0.0767459221014	-0.101124769203	0.0561103869359	-0.0228135005186	-0.0382426211261	-0.0986975313842	-0.153024563954	-0.36567172163	0.00599859400269	-0.0854100414994	-0.0453101292594	0.135165248059	0.165549449094	-0.0721343814943
December	0.113780357608	-0.00537083457258	0.295849031347	0.0650213892362	0.0395958634372	-0.0515453157934	-0.19484203695	0.19037323907	-0.119758884502	-0.0929503202362	0.0290805480687	-0.18685504259	0.358004680419	0.237037590404	-0.183766327064	-0.108830980254	0.00270737698104	-0.0328571932631	0.110121534622	0.0241451066746	0.000845870549527	-0.0441368749295	0.0871580284452	0.181790376839	0.221912428346	0.114982650895	0.244517400276	-0.00443205762221	-0.0252861661977	-0.0167269528688	0.0101407336524	0.196573474421	0.0227177265161	-0.204990372036	0.141174654501	-0.0546627478436	-0.0897230897123	-0.0957421575817	0.0498290811887	-0.0211450745309	-0.0490296638396	-0.0934389234443	-0.158285057424	-0.35209456642	0.00293837607769	-0.102128205734	-0.0640492504419	0.119938785079	0.174432612193	-0.0684648382931
week	0.115789042455	-0.0170640419877	0.313362490187	0.0653398499631	-0.0337185469677	0.107811405716	-0.193139274763	0.143176210358	0.126962329354	-0.18377894377	0.180975710259	-0.0666247779565	0.0229457863613	0.148375843588	-0.18195787822	0.0864632191669	-0.0263392217211	-0.155614601677	-0.0940610542581	0.0612075359536	-0.162505095622	0.070412432108	0.0503041199761	0.149312056902	0.144209288861	0.146863845571	0.26908203335	-0.0663278748893	-0.0670361171072	-0.0225209311377	-0.0150632126684	0.257395586218	-0.0171739727137	-0.207865036145	0.154773901945	0.160590318633	-0.00460312388088	-0.177317359871	0.319993926069	-0.0361649561557	0.00298479942359	-0.0142747750849	-0.108632281874	-0.238775844244	0.0895484880654	-0.0222907073633	0.100732137287	0.144071424917	-0.0386744403503	-0.200902456478
February	0.120568277	-0.00731681612447	0.322599767004	0.075303142666	0.0269705738797	-0.0452390928531	-0.18138605585	0.210142151276	-0.118587444346	-0.11015336468	0.0352366439904	-0.189971764139	0.349957602908	0.234773612125	-0.179469066826	-0.114212895555	-0.0174087300752	-0.0420788331218	0.108639178564	0.0115939193733	0.013581892434	-0.0558883785029	0.099765753912	0.203780049449	0.211862989144	0.1151965915	0.206505584456	-0.0172680220728	-0.0116174407111	-0.0255937355757	-0.00427668322499	0.193543227257	0.0310187641097	-0.175695992242	0.156201423541	-0.0354357353132	-0.0899485355838	-0.101560936008	0.0351845610284	-0.0241656543573	-0.0479831089118	-0.0895465727233	-0.171137893013	-0.347703334703	-0.00803211680529	-0.107163634647	-0.0449379357256	0.119169597454	0.173345958591	-0.0725347652219
America	0.10734258244	0.0734345627372	0.488763290453	-0.147910783856	-0.0167500707103	0.00646879267358	-0.157757514646	-0.0673156041284	-0.168782386166	0.00345951377311	0.0683764798518	-0.0739346058231	0.00698373900439	0.137059260606	-0.181452497486	-0.0996328985317	-0.105252598436	-0.014846377268	-0.00748888056881	0.0999450822936	0.0393175054153	0.201176157747	0.258836420125	0.0142992713034	-0.143801410166	0.261532730882	0.0450881987219	0.0842252964355	0.0858991661537	0.0792397688215	0.204500365744	-0.048086496284	0.210838558929	-0.213026198406	0.0789707260317	-0.152608835719	0.000522790143924	-0.0679768375737	0.272110112864	0.0335558324937	-0.0477888235764	-0.0245193675979	0.27367534577	-0.146869517665	-0.0317172427002	0.0357975942812	0.0440406574807	-0.0156935090841	0.000650252106996	0.052102920788
Washington	0.107886391902	-0.0577310253752	0.359572130885	0.0548762102663	0.0401509199316	-0.18839548832	-0.0818339551562	0.0346301954276	-0.0612810135103	-0.160301430585	-0.0727999441985	-0.155958038452	0.000357301664117	0.0212808583292	-0.20334638605	0.145331462373	-0.134098229088	-0.1477422591	-0.00922903361826	0.204926357457	-0.0393683105465	-0.0520052032391	0.1894565987	0.0798880463953	-0.0284276112523	-0.0354401511637	0.113856172274	0.16348871975	0.156997559608	0.119373658394	-0.210631669829	-0.0460498156834	0.173418683521	-0.27250566737	0.0351540939401	-0.122836569991	0.0226568115654	0.00462261276829	0.124494622426	-0.0503194446325	-0.00530159387623	-0.120361725232	0.270225485451	-0.372557689552	0.126346977881	-0.198460024923	-0.0517324593706	0.053322505749	0.0603508777583	-0.00959712989458
football	-0.0463108267853	0.162071124344	0.272258337507	-0.120614961851	-0.121516434895	-0.0436270951431	-0.0593517815824	0.252291775301	0.0660379156234	0.0696795407365	0.0327147576764	-0.297461028781	-0.00158008540156	0.124497000673	0.0859474305086	0.0017697207255	-0.179676178235	-0.038633260464	-0.00823111339914	0.109673787277	-0.502752707747	0.0397249957256	-0.0298595706256	-0.108963830238	0.286043101599	0.13352677656	0.108551334228	-0.0383915929685	0.222116563731	-0.0809235049351	0.129032576106	-0.0247425513476	-0.00748699065696	-0.0769007284932	-0.103291696648	0.00570191103746	-0.0974531227989	0.0939832665411	0.00955479930487	0.0334783141212	0.0512071795046	0.187554037072	0.119310709648	-0.240362929808	0.062036453565	-0.0681257848676	0.0576293913262	0.0303839671495	0.0952514723604	-0.102731253741
European	-0.0718162114547	-0.0508992459201	0.390348770368	-0.231103687911	0.020781226952	-0.0864903689976	-0.146949656064	0.0761816265005	-0.163610108567	0.0378150577916	0.0755919998781	-0.0177852547409	0.106037891698	0.173589033534	-0.203751002244	-0.0443997403223	-0.209933525192	0.0901101941785	0.0895645172978	0.222254621346	0.0341998998399	0.340906088895	0.136966841739	0.076239188994	0.0950947949649	0.294980942495	-0.0637769091565	0.121356515806	0.0654851150439	-0.0737153848037	0.155465404676	-0.112605072119	-0.0471868540267	0.068619548388	-0.0507825651901	-0.0505744845549	0.0422769289075	-0.217467988865	0.162020528089	0.0776700836798	-0.130183024096	0.0539061083327	0.071879219049	-0.208396062106	0.0685055902084	0.109262169204	0.0500828697458	0.095764931291	0.0416274061771	0.164767581409
Church	-0.0845934841492	0.116955410806	0.0290307117161	0.018272604382	-0.0347659390508	-0.146479777946	-0.0092908892362	0.210038233576	-0.0180999528735	0.103619680394	0.0483699187511	-0.108225638972	0.157985082642	0.293210859755	0.0492318973939	0.0818588760885	-0.0723703967925	-0.0304963311888	0.108365039079	0.0940659771944	-0.0695120551506	0.374528441392	0.176984421985	-0.0639178265479	-0.0741499862308	-0.0667649778142	-0.000988589749073	0.154330305986	-0.0753000371129	-0.012449772393	-0.103190929147	0.0875426276956	0.131872501146	-0.101278653827	0.254372902902	-0.0469311561797	-0.0834344809667	0.0118317439373	0.077880217991	-0.0593927583982	-0.0445978030138	0.0530283122323	0.289669905204	-0.236350962932	-0.115809196624	0.0582305579656	0.127904074249	0.136610825881	0.409010144903	-0.160715214553
Europe	0.0409412335666	0.071130932287	0.423469051765	-0.235859567618	-0.0740330044364	-0.0740525918565	-0.187998490309	0.00353357057067	-0.231465325812	-0.0448113160131	0.1369168494	-0.085562943354	0.0882613063352	0.14508402005	-0.134752831237	-0.065816865237	-0.139264597563	0.222915808724	-0.0877555591504	0.117760744374	-0.0690777789211	0.312489080452	0.236771166146	0.0717906365931	-0.0351120173702	0.268823236761	-0.0313379132817	-0.00263254924999	0.0360099047037	0.09408112057	0.0718693780216	-0.0589749794258	-0.0612674910644	-0.137971436094	0.117345882818	-0.0252685553159	0.0310335247747	-0.170318493255	0.156783194276	0.0898208567168	-0.00643838495887	-0.136560358356	0.197031424923	-0.119457798444	0.0956641758556	0.109824313533	0.0318205473109	0.11492605295	0.00382228914169	0.156169324533
China	0.0309640967141	0.0563811908867	0.228040174413	-0.0287103209873	-0.0220978726408	-0.0741821705601	0.0510627392989	-0.0820795006346	-0.226526066544	-0.0856127565898	0.110374581337	-0.0950674065306	-0.0345733112581	0.0649111716071	-0.154441703408	-0.0326419375413	0.0727568498413	0.27394988305	0.0753053448925	0.0860914644958	0.168158474162	0.24816346134	0.252597417361	0.123304083518	0.0222821988162	0.397874126246	0.198204315937	-0.0474548751299	0.220017597065	-0.00923217567424	-0.140071013603	-0.0870411156521	0.0802652719413	-0.156571244643	-0.120282619654	-0.0846212438112	-0.0476695847407	-0.148392023806	0.285105667786	0.013760657939	-0.00854854837544	-0.148785658092	0.181056917721	-0.142237690148	0.104729001427	0.0383972354129	-0.0970109336216	-0.010057254745	0.0669563144102	0.13846508024
Canada	0.114498345398	-0.15715318032	0.49663832003	-0.0130918555478	-0.00480063964192	-0.0877117453125	0.0270668012579	-0.00414192109539	-0.0427211983582	-0.0459859984892	0.00108814966723	-0.0239097978187	0.186704923558	0.236962760979	-0.0155062205403	-0.10299710553	-0.0991178291429	0.0485499445589	-0.0662180681328	0.0767561603602	-0.0161807399049	0.190936031493	0.275537473561	0.0459449163624	0.0826280954635	0.222092786711	-0.0849255344027	0.0782660163038	-0.0207766711712	-0.0350202307875	-0.0539074752535	0.0612292231919	0.197938602907	-0.0556768157418	-0.017089111376	-0.142624152592	0.0173131318625	-0.078267420821	0.234423745089	-0.16703290513	-0.266515557605	-0.00615670095681	0.12909935463	-0.244622646423	0.132046382755	0.054744567479	-0.0901949316457	-0.0658181318724	0.0969632998243	0.208450711567
Japanese	-0.0469526093773	-0.108715208752	0.248650830336	0.0912372913905	0.0713554889607	-0.0997105898692	0.098994180993	0.0806264152081	-0.328811612133	0.0114745145251	0.0654621037475	-0.10601654117	-0.0421969358212	0.0955331559977	-0.202117905833	-0.0658028347984	0.068820229907	0.308367101918	0.0802429714329	-0.026694805541	0.237042676757	0.0407518219815	0.19188367822	0.0290753927596	0.0102649678317	0.357373481457	0.148336761445	0.108997371598	0.211889088685	0.136453240226	0.00842961501064	0.159183204774	0.00375386602197	0.00192142543216	-0.0983101302413	0.104520625074	-0.129557076735	-0.0315051643275	0.318418182547	0.101713234194	-0.0434919079632	-0.186387003613	0.0284269359449	-0.185259322975	-0.00853898547141	-0.0512222639036	0.0155671701104	-0.0326008104227	-0.122426316842	-0.103112075915
Australia	-0.0525969612098	-0.0218982859827	0.436778847496	-0.0441691113147	-0.0618541546564	-0.144764970227	0.0134196042533	-0.0447139330554	0.0408442317374	0.0165097703944	0.0845575623098	-0.128095881265	0.249854158599	0.222129316255	-0.112028586636	-0.200400583437	0.0191230042916	0.148228699177	-0.192615466266	0.176158915778	0.0386458401926	0.157195230055	0.0786235426743	0.0582065441043	0.183872731921	0.322868459532	-0.0114412565549	0.10910899712	0.0458407622411	-0.0491820171745	0.0154931337086	-0.0770167108654	0.17155232344	-0.210210786302	0.0205196856983	-0.12206224488	0.133296080259	-0.141219023344	0.29947558116	-0.0283095790154	-0.0296086905925	-0.0181882443858	0.0455842149969	-0.182883728648	0.00180572415377	-0.030585412348	0.108771255402	0.0139497564043	0.0401209868468	0.177817944034
Bush	0.0774782512634	0.137434082241	0.190294548606	0.161222335541	-0.0849151672511	-0.189373194643	-0.150638416661	-0.0584258060302	0.0732972033217	-0.18255920993	-0.153107881796	-0.0334438619774	-0.141604000199	-0.11263404386	-0.344550557783	0.0750359154638	-0.158394276244	-0.0370106739433	0.134235255362	0.175021428465	-0.0467716696537	0.0549264695905	0.313017574884	0.0156932770259	0.133663104637	0.0737938788446	0.0640433174939	0.155514740772	-0.0769801844925	-0.0653093531405	0.0149506984255	-0.079084099225	0.0686838250755	-0.213901939671	0.193134085699	0.0801497951649	0.0115452712233	-0.0841938051822	0.20666710245	-0.209493074876	0.154061582274	0.0903925104826	0.193460333347	-0.160006732633	0.152022360572	-0.212909284249	0.0479531869865	-0.111783643542	0.0622253042179	-0.0807090768461
Chinese	-0.03973304227	-0.0441894907259	0.141588704281	0.0289577439188	0.0726825683728	0.0044187452716	0.202694696718	0.147887174077	-0.151320541531	0.035607430765	0.189299196889	-0.0819799698314	-0.047082785539	0.0106020675042	-0.111865687621	-0.00251728197462	0.0271242142873	0.226235410151	0.118451177153	0.139701507054	0.268041108555	0.177937291337	0.278170357748	0.11833602959	0.0204480333116	0.41692588851	0.17476444949	-0.00171294737525	0.264577850289	0.0969773454926	-0.0627496474736	-0.0713816386787	0.0368132533274	0.0287705866704	-0.106319243502	-0.0727793738461	-0.016046950793	-0.0254377610416	0.374536639919	0.084822993732	0.0265246996894	-0.129435031857	0.178237558138	-0.136518475158	0.0798655344931	0.0669537223623	-0.0673599656819	-0.00743805703417	0.019715029061	-0.0360979118298
love	0.0188505389547	0.220407733259	0.0788703055508	0.0479281504844	-0.0520492133024	-0.00180605103223	0.138178286735	0.471619366574	-0.17554740069	0.0722959759363	0.134848771835	-0.246071889347	-0.0130537038645	0.0597755413986	-0.16193991714	0.22234900073	0.196346043902	0.0536945998579	0.0127509861626	-0.0123582507751	-0.0830434039085	0.112461335464	0.0145536188017	-0.349144038372	-0.205859052136	0.0434329635303	0.0209418359018	-0.00589027116884	-0.149999090147	-0.110719474259	0.136808650558	0.020101670837	0.163985255691	0.0415801944588	0.172912579237	0.126303928497	0.0647945021431	-0.0803979474544	0.191265552082	-0.177721878536	0.0457825390688	-0.0264359532901	0.0368404024859	0.0319236137136	0.0843412538301	-0.175719839632	0.0299963996363	-0.152124950847	0.0383293026008	0.0114994744589
Sunday	0.184044453348	-0.0157618508424	0.185053419073	0.0558676832184	0.0640778364504	0.0138394121134	-0.0863676141052	0.175712528391	0.104481250794	-0.0888963205736	0.134691742503	-0.0667279445174	0.216108910324	0.151284898195	-0.213528015974	0.0766599277393	-0.227834158013	-0.176234777341	-0.0421059977382	0.170308306619	-0.206318685676	0.11618577138	-0.0186492102042	0.123012020414	-0.0127542002625	0.104804741639	0.133860437654	0.0571213027746	-0.0218589500305	0.11876444497	-0.0297674499002	0.133378162401	0.0906658969239	-0.0889562811192	0.221060837116	0.203174458298	0.083358483018	-0.104862481423	0.325454737979	0.0127145966922	0.0171328006022	-0.100309551349	-0.0951107499653	-0.251444918307	-0.00256386851674	-0.0246593295885	-0.0234053399054	0.101691234787	0.210113596013	-0.322401931926
Chicago	0.020113619944	0.00434467317324	0.550473756704	-0.130970338635	0.121658529269	-0.0580744381172	0.00192010465672	0.0241165144883	-0.0524733182786	-0.102630641231	-0.0432484372879	-0.0749724064261	0.0660111034383	0.0687809416831	-0.0919272796549	0.134985801137	-0.0882047203904	-0.131169331299	-0.121627109375	0.221445320949	-0.0320151268262	0.0179760197962	0.132526321626	-0.00949893229174	-0.155308188823	-0.0404367058506	0.161166951796	0.0231142198575	0.130327627239	0.202957505984	-0.0698572476206	0.119469260851	0.182919642897	-0.106992420791	-0.00951883155818	-0.086237835002	0.0302172106476	0.168845624873	0.136115171785	-0.051637898198	-0.0287963332017	-0.0693657008285	0.195498772168	-0.364302154739	0.205521369366	-0.141275016662	-0.0942949432516	0.0613668939386	0.00895641544873	-0.110136853999
computer	0.125988166357	-0.0307381017605	0.39221297114	-0.0640317395048	-0.268486736307	-0.0893752055572	0.0381779279653	0.183017370261	0.0223485620748	-0.201516182356	-0.0199311725289	0.11702526702	0.135395280932	-0.179734747763	-0.0849406702803	0.109414056137	0.0842804064785	0.20457444673	0.043961381843	-0.200995103687	-0.00237618797669	0.204605261349	0.0515421243389	-0.0375283973454	0.120481005355	-0.105819132668	0.135449639305	-0.00546769059127	0.120017747376	0.0138918534444	0.00494661192233	-0.0246804323973	0.0879193013692	0.169241850659	0.00393180688668	-0.100847245834	-0.13832197727	0.0166516661155	0.177112042834	0.347696233693	0.0165945378894	-0.0528858494646	0.214165410323	-0.0937713091183	0.0317411349193	-0.0660142620684	-0.02579599085	-0.106014061101	-0.224870547443	-0.211809303784
Africa	-0.0273604436903	0.0743483307056	0.270966751461	-0.266514733484	0.00123654102279	0.0221966000059	-0.105370024221	0.0040253928487	-0.0149429650412	-0.0174986847101	0.0655511189955	-0.0530936652359	0.0820685659095	0.175139693112	-0.270378546264	-0.122456192665	0.0401074650569	0.132514467945	-0.122914058847	0.133685167609	-0.0608555551768	0.172487226957	0.207771140657	0.0778567345203	0.157156604122	0.423032071763	-0.0205959159598	0.00254093895582	0.0710337557879	-0.0424512158627	0.0121353013986	-0.193941096129	0.0134729559361	-0.12992414797	0.177556003782	-0.100401353135	0.193039472628	-0.189501507387	0.0923448567077	-0.0168990580528	-0.127263619608	-0.047574412586	0.325957050931	-0.0787953098036	0.0132838299932	0.000902631276345	0.160930052997	-0.0242551502334	0.0648040211322	0.13615858558
Angeles	0.0662191006486	-0.0207199578576	0.614509842686	-0.107190120186	0.109786559809	-0.0265409504473	0.0930771883447	-0.0332254772839	-0.0661163066733	-0.0891606406037	0.0351247337931	-0.1713536656	0.075115157175	0.0947779908701	-0.157499502188	0.141820988918	0.00812072405008	-0.166401395596	-0.188406440281	0.145433045988	-0.0511385435	-0.109385112044	0.194047138075	0.0746151309607	-0.126568243754	-0.11482638304	0.270497644115	-0.0272118675922	0.206577302114	0.0244481040224	-0.153756115276	-0.00875337719155	0.139480723556	-0.0327766859216	0.0677499850571	-0.0641012853401	-0.000960167069133	0.0532583044358	0.185696181462	-0.0510882814616	-0.0485686941171	-0.0505259951739	0.063909965323	-0.165314114211	0.00596237483963	-0.22581631333	0.011355653696	0.0757607811651	0.020017910676	-0.0774424516887
African	-0.00532039951992	-0.0473665695047	0.275862801394	-0.17149219785	0.0904813062695	0.0694654693076	-0.0122774733521	0.0788288892606	-0.0162027995759	0.151480730827	0.0988320728206	-0.0318747672049	0.0548751839424	0.156401108093	-0.248932226412	-0.00917013914011	-0.0334703693444	0.0090127533353	-0.0114832962976	0.250595131692	0.0114263474866	0.0474345629336	0.316480419085	0.114891982653	0.107464822272	0.408255326224	-0.0712436527865	0.153153645292	0.108706651495	-0.0134816818455	0.089537336585	-0.161326317379	0.0673110785322	-0.0239612984931	0.132353523523	-0.0745342586264	0.191996530947	-0.00389771467911	0.0938606141969	-0.0338165490861	-0.104202518265	0.0862277478081	0.348072513101	-0.203661028006	-0.00767773514892	-0.123137135045	0.144999956141	-0.141627896244	-0.00973583066221	0.0657513714008
Clinton	0.0966559024896	0.11922928339	0.23635618036	0.185006974576	-0.0720387218511	-0.15309070156	-0.108750011683	-0.000251855387866	0.0613075947566	-0.214692576543	-0.129078243217	-0.0153264778078	-0.119148137469	-0.0624227619285	-0.300223070308	0.0433100356761	-0.106354018448	-0.0781152381409	0.109649350909	0.233005964973	-0.0457218540495	-0.00856510341781	0.250867495208	-0.0131937879325	0.139522834302	-0.0445794137674	0.0478760930489	0.22778097579	-0.109516352409	-0.135321428513	-0.0805576966751	-0.0910238368842	0.0478205367134	-0.261395252444	0.118849816783	0.0211800953453	-0.012165153962	-0.0461397050339	0.187773343382	-0.199146230328	0.136837611416	-0.0292630371115	0.287213460045	-0.240891597572	0.165085146055	-0.168038049466	0.0235201955401	-0.0372261118749	0.101465397624	-0.0955380416772
Christian	-0.0468321893161	0.199823879039	0.164576278194	0.0147011009287	-0.186064709115	-0.0762727661403	-0.101782816059	0.3038328308	-0.101839021818	0.173615714825	0.10501988018	-0.0834546993261	0.0683679105995	0.287519593639	-0.0364655215094	0.0605239123294	-0.15277500683	0.053537730237	0.0893369227769	0.0777941979059	0.0674624164327	0.315712790228	0.207672916446	0.0321473686764	-0.229787750866	0.110958697016	-0.0460546117054	0.172337712142	0.0234513686174	0.0685822677375	0.0237308469112	0.0762049316029	0.0987589461981	0.114394225612	0.320949228884	-0.0393847323698	-0.0716759102653	-0.0266287383457	-0.00100743978573	-0.0970068770055	-0.0130606680032	0.0939663392297	0.19862262629	-0.327625310234	-0.0325900374856	0.0784725432792	0.0820418028202	0.0305053852472	0.139958543161	-0.0807436435888
Mexico	0.00942955286233	-0.11680576632	0.504649427148	-0.0573112920951	0.0448698649441	0.0752707514048	-0.124587640871	-0.0318748607209	-0.171621945311	-0.0306181001971	-0.00936930868276	-0.206099019899	0.0437620414198	0.118711825223	-0.21800962889	0.00444836328151	-0.0447731395669	-0.148737524321	0.076718285164	0.119957875671	-0.0675394150266	0.147141053563	0.22968863248	0.0477254390558	-0.157981658987	0.174501617095	0.275240260723	-0.0673774251215	0.0696389246846	0.0182111461044	0.0288700149198	-0.196065686482	-0.0956105251874	-0.150590702223	-0.0390368896021	-0.105900231058	-0.125590371771	0.0463036764179	0.212863102506	-0.127792965914	-0.128106235648	-0.0204719762877	0.210723764751	-0.0593006887805	-0.0629032907188	-0.205381444783	0.0410600899661	-0.0417187596627	-0.0323353940047	0.149307835888
Friday	0.0897645628794	-0.0133677715176	0.211560110835	0.0873081148411	0.0626476169457	-0.0040997953919	-0.0784527854078	0.154499417665	0.09401028965	-0.128016492134	0.140767770255	0.0428241917734	0.153391406048	0.193147990693	-0.243034041927	0.148298667646	-0.152649937476	-0.131506271501	-0.0139514970325	0.196410681022	-0.215023599693	0.0809614334431	0.0569524829566	0.216165141235	0.0503162249324	0.0930634502867	0.156923859866	-0.00646175000476	-0.00266905824538	0.0505558876928	-0.012869394903	0.163510585046	0.0723945375703	-0.137139298925	0.224108304296	0.254047860291	-0.0428017114827	-0.158101217464	0.310658185602	-0.036139162949	-0.0257795591469	-0.115469441738	-0.109265643544	-0.154572192843	0.00648994562363	-0.0684921115104	-0.028045115225	0.0460990748025	0.19219505498	-0.333657047094
Saturday	0.179466074196	-0.0252782587633	0.289359576167	-0.000568527000996	0.0330919145146	0.0137034973992	-0.0919335833829	0.185258884434	0.0938812174714	-0.0711569515388	0.119762682332	-0.0457767572503	0.192013952017	0.143811759797	-0.211127738714	0.0547758075618	-0.225177676781	-0.145557274305	-0.0123355997166	0.150889097769	-0.28255651832	0.0331448088936	0.0235201336752	0.179033811523	0.0391614569337	0.0319818331429	0.164225136866	0.00614660707732	-0.00890972536682	0.0773529500561	0.0080259338551	0.15291239534	0.0764015518215	-0.122363264251	0.163324881541	0.259906864988	0.0606428801063	-0.103797337215	0.353494886464	0.00915247904007	0.0595296460895	-0.110283729376	-0.130847382529	-0.157341861716	0.0156364191439	-0.0238637719919	-0.0254604115918	0.0246112991762	0.14885879432	-0.316475476734
Britain	0.021655104781	-0.0896202167545	0.282695856096	-0.139328049346	-0.0197203307012	-0.144635585047	-0.167243487504	0.0760199370865	-0.050704024273	-0.0534176459232	0.0236134462944	-0.147513056474	0.126068936338	0.169242604419	-0.237214075858	-0.1514787448	-0.111406251723	0.134681149962	-0.00811467891288	0.154541763006	0.0396134892495	0.301853186992	0.254575418674	-0.10622852395	0.102418829591	0.252659348906	-0.237533171429	-0.0820954718562	-0.052822474701	0.00704591449955	0.0725903143559	-0.0871841671011	0.0939917886601	-0.171394722609	0.0702552679898	-0.0692994776236	0.155759787833	-0.193777051058	0.188001159374	0.0208583010706	0.152529927159	-0.112882021975	0.114097802284	-0.211462352565	0.0660950548148	0.0990643981962	0.0346478683806	0.0895502626259	0.149500202629	0.155268612588
morning	0.144787737212	0.05886874751	0.148617819729	0.0274791355906	0.00758280495246	0.0635698893882	-0.191511710197	0.268765991439	0.0405772593683	-0.142355445205	0.0810244476174	-0.113510752471	0.195767652384	0.206557108601	-0.0531725426095	0.0569237481801	-0.0705133360115	-0.0922632749016	0.0162634404879	0.0325769374998	-0.13072185397	0.0112426194452	0.0442681695804	0.077065431629	0.0233760174877	0.00791613589631	0.197096425566	-0.0507561776786	-0.0854783406043	0.206309101277	-0.0775561372506	0.15063942071	-0.0658512533907	-0.171558876361	0.055641997793	0.155317430406	0.0773297452443	-0.231104524593	0.364851006104	-0.0451570520974	-0.0201246187248	-0.232723777301	-0.143509020554	-0.178082530772	-0.0794374282772	-0.110014380114	0.0851692794903	-0.155471392139	0.0893819910434	-0.361290546227
software	0.0671232181817	-0.0895081155237	0.264594884823	-0.130822145709	-0.403389450617	-0.153655306891	0.0440401737525	0.00711022750781	0.0183378060755	-0.140128866034	0.0838625344781	0.147772559303	0.117788795076	-0.155847348861	-0.158808751465	0.0916311693711	0.0639840996299	0.176831501182	0.00388876829312	-0.294702636921	0.031422341445	0.242249091348	0.0301980407013	-0.0916241751835	0.183409852516	-0.0911199578427	0.18117997835	0.166269960022	0.139677740935	-0.0696166460531	0.0942524001246	0.0478122662801	0.0395445007282	0.194514714884	0.0234124070806	-0.0969159139211	-0.137172868029	-0.00482281025234	0.164384708553	0.167441804359	-0.0585934885133	0.0041237094122	0.199481541817	-0.0483657608516	-0.0300511627622	-0.165485339343	-0.105591567776	0.0578746767809	-0.102617766385	-0.200317983068
Southern	0.106467747865	0.171061010522	0.399662738822	-0.198096418318	-0.00251473958101	0.0446851686134	-0.0839611417831	0.0589174828953	-0.0905580271224	0.115001186241	-0.0750585565479	-0.162404262219	0.00790631932094	0.218798001951	-0.00851973727291	-0.0446428909243	-0.0510573558643	0.0855391173826	0.120281982777	0.116757276179	0.0444326768591	0.112465307815	0.146803012023	0.101342360982	0.00984678695841	0.12419893238	0.0910931530575	0.107474583202	0.257162264585	0.0103948310763	0.0651009863856	-0.138264876126	0.12178362366	-0.314828249591	-0.0231787430466	-0.252394280759	0.0225911614602	-0.0589953834521	0.182084135033	-0.1368430931	-0.105301196814	-0.209471465445	0.250940006546	-0.196209580712	-0.0265895347604	0.0195330752823	0.0625001255861	0.145789130405	0.13242664043	-0.0274683626495
Monday	0.0734428939162	0.00694910706175	0.241468881434	0.0800965306329	0.0625186369495	-0.0296025740402	-0.110715848492	0.0950440717712	0.113458020641	-0.122904555619	0.0985808295852	0.0483508709323	0.165284926159	0.169546660083	-0.25111943165	0.11740466025	-0.190645019982	-0.147531527534	0.0202511968049	0.206364560706	-0.242473776818	0.0566292242831	0.0295548100371	0.183456722641	0.0746895714245	0.0479161814774	0.19732975884	-0.0236742836968	0.0118114085289	0.0465143635247	-0.0183987680629	0.156531894885	0.0446941477151	-0.189670856476	0.158929351632	0.199096286429	0.0329575324314	-0.187223784408	0.265904056808	-0.0216245044612	-0.0426488116425	-0.105854287552	-0.12636466887	-0.23658214257	0.0258940139203	-0.0839369045909	-0.0502510636775	0.0404183437749	0.188739273283	-0.340612141412
website	0.125566268283	-0.0999597467345	0.124183978314	0.0305263183511	-0.340306830165	-0.0550152188373	0.0606529007722	0.0270981143107	0.0594470567411	-0.138723982401	0.0749372143965	-0.256401321573	0.215449078203	0.161090847228	-0.0687822960287	0.0876272687061	-0.22773978695	-0.0757191197361	-0.0689298547997	-0.132362559827	-0.0760290712287	0.205957301701	0.0192294842898	-0.00928175899224	0.092793387161	0.0753931631916	0.314327898385	0.330000747852	0.0786765410309	0.0177578002505	0.0676451566106	0.222076731153	0.249775230092	0.166589558468	0.152979799226	-0.116408255667	-0.065743288006	-0.133334573954	0.11694852376	0.0974012806356	0.103580401765	0.0700357648483	0.0463974743148	-0.0956645373224	0.113526175227	-0.103186130974	-0.0613356528636	0.0610260917381	0.0614117744518	-0.10351325862
Pacific	0.0886490646869	-0.103809670323	0.379041652251	-0.0761787132409	0.144876056218	-0.179841277969	-0.110932814215	-0.0131159995194	-0.201633921127	-0.051527048595	-0.0198065559692	-0.0349794473477	4.36467150246e-05	0.13379658009	-0.135658193313	-0.0770080008264	0.0193885174319	0.0398122702824	-0.00152569517186	-0.00623533737751	0.00349788007297	0.090503241803	0.105482794399	0.0403340910087	-0.0770736325534	0.189506277221	0.15079940041	0.072836991415	0.229405194315	0.014273769049	0.0500744212572	-0.0144334836951	0.141557289331	-0.295935073755	-0.205905156328	-0.120330760233	0.106693586605	-0.0686808542177	0.311609740701	-0.144815274126	-0.18495343988	-0.243359534072	0.150452813162	-0.246811180958	-0.162998172296	-0.127279963883	0.0726426827059	0.008884531325	0.00466114585562	0.0819672375802
Tuesday	0.0507314120057	-7.0571628014e-05	0.256914477619	0.106413577133	0.116764210422	-0.0166683281623	-0.084203074923	0.084742334211	0.144060855888	-0.180323166444	0.122268413866	0.141058109825	0.0767086748611	0.137564047155	-0.287124120448	0.153681609786	-0.193569921272	-0.118503570928	0.0677955549512	0.230924557896	-0.159787206233	0.0312555603811	0.0934337671589	0.172500071354	0.0746229764201	0.0516557469161	0.201788831145	0.0226803404945	-0.0290770449076	0.0112197382299	-0.067810513068	0.128488689209	0.0439780140379	-0.172796165358	0.183243834636	0.245367962068	-0.0539646664848	-0.139001176993	0.214405810902	-0.000833819126644	-0.0778470259042	-0.108146800975	-0.072052481578	-0.226255707745	0.0246202931819	-0.158749726593	-0.0248554040948	-0.00606839292629	0.194025184981	-0.308098468544
baseball	-0.0525315682967	0.124422486743	0.477399920029	0.039022662796	-0.00364088277739	-0.0472702593323	0.0586899151353	0.0940353287536	0.0299062123457	0.0594017874213	0.0727982601344	-0.190155058351	-0.130215957366	-0.00121069807688	-0.0680478990943	0.0499825866885	-0.00695568016537	-0.106552340686	-0.0178098384436	0.0833599719435	-0.41117488675	-0.000603682245095	0.0283318502658	-0.14057371428	0.139663039005	0.0669590284584	0.103633330955	-0.0150893286473	0.078879934479	0.149989278373	0.0425162616522	0.090007143813	0.155339685018	-0.0957096984344	-0.269187125605	-0.0326233885553	-0.0402266936995	0.258260840633	0.189342875411	0.0340825903676	0.0384647416046	0.104188827719	0.259021807559	-0.202401140602	0.0265950515978	-0.183730327631	-0.044512777029	0.0333373822147	-0.0117487717258	-0.125330434538
Senator	-0.0113206618023	0.180381854555	0.245546508052	0.178411671912	-0.155654160317	-0.0461673273364	-0.211995604011	0.129643090108	0.143103203351	-0.165750424823	-0.162174547749	-0.0380742735319	-0.0679363563354	-0.153183543615	-0.127927400448	-0.0772142917237	-0.134515908249	-0.148264427214	0.22505348269	0.0611747461225	0.0362951817959	0.00765366267462	0.293167364837	-0.0686709357344	0.17462022778	-0.0738280310898	0.112715915445	0.109559966538	-0.110666406484	-0.188381132266	0.0830490520566	-0.0624236195688	0.0938916916968	-0.163278333654	0.0747224426985	0.0364591425128	-0.0186581987781	-0.00403738520761	0.0738884842319	-0.173774178684	-0.00958845811302	0.0262806027549	0.198504821856	-0.33935356535	0.0630989253993	-0.182301020645	0.0292251131119	-0.199751631049	0.200045934638	-0.0596604686379
Thursday	0.0549485806413	-0.0133082062681	0.237922280155	0.107349903734	0.100497128173	-0.0213609860554	-0.100291434849	0.116587127921	0.125588298145	-0.172614649744	0.137317371716	0.109849343277	0.119044821587	0.151222544034	-0.274647646704	0.177577096065	-0.179702340743	-0.127047126813	0.0368578148332	0.223880864473	-0.201287995521	0.0641402638709	0.0617573332764	0.201459153619	0.0459329891135	0.0623482271983	0.168068523674	0.0130171236489	-0.00443037613635	0.0438229247553	-0.0486316703458	0.128865729044	0.0295109198851	-0.166508745884	0.195484939028	0.242181118685	-0.0649296404653	-0.161223338273	0.226763986583	0.0196774886645	-0.0557463064112	-0.115054295197	-0.0897153065151	-0.227200800266	0.00786150776636	-0.135916228261	-0.0210680058963	0.023724941251	0.204282313468	-0.291430248511
Wednesday	-0.000580564828492	0.000176660819073	0.248175987485	0.0639361172891	0.143200202996	-0.0551200629527	-0.0854290953156	0.118349914446	0.15284293937	-0.175652568971	0.102580671461	0.0843408193724	0.138491890183	0.17592812965	-0.26905669233	0.186776160886	-0.216013903923	-0.111743630269	0.0277508478098	0.244241886937	-0.220123155369	0.0124862960968	0.01934586961	0.139227976929	0.135647198019	0.0701766229748	0.166774607852	0.00493253615989	-0.0149270842509	0.0274341417687	-0.02206863561	0.0946796295724	0.0371493543766	-0.191205893177	0.224458140083	0.196243746363	-0.00563993439694	-0.130471187013	0.223511796764	0.0259344122085	-0.0114229338589	-0.0650243932323	-0.0788688637458	-0.212363668623	0.00212710195615	-0.128494699729	-0.0112949680092	0.0446793330494	0.230005591786	-0.298235925908
Philadelphia	0.0367326710129	-0.123425480526	0.457949558875	-0.132105363807	0.14115192461	-0.0674145104735	-0.0614517598206	0.0786536332165	-0.0351508033076	-0.107997621685	0.0335431637837	-0.0676497190971	0.104873685792	0.032796107268	-0.185665075056	0.0979511795632	-0.0872594632978	-0.121825670415	-0.128879319316	0.211822492326	-0.0144860456694	-0.0759250826934	0.114100649326	-0.0858583245487	-0.126396416634	-0.0631938042722	0.016416974716	-0.0141640610488	0.139948152321	0.16822995039	-0.0891313455194	0.116003849201	0.102988754549	-0.256047585608	-0.0367793212669	-0.0927312444939	0.0426464878329	0.132065890515	0.158439921552	0.00853960629405	-0.0569573503805	0.00281141181351	0.223447213672	-0.429291296518	0.08043808699	-0.135237781565	-0.0523888877399	0.149040058475	0.0883262208552	-0.146637733505
USA	0.0937749599139	0.0703258819206	0.564682721907	-0.114008910503	-0.15564132015	0.044616770564	-0.124404899727	-0.00949057978285	-0.102087480881	-0.0107926447892	0.118318330951	-0.123677697858	0.0691010128212	0.269396880256	-0.101906398993	-0.0761127006321	-0.113121568188	-0.135262421927	0.0413141818393	-0.0351918894254	-0.0961795302945	0.106801769225	0.101469503009	0.16114111791	-0.113240646981	0.0644860936771	-0.00671358021242	0.145972122178	0.139493004003	-0.12314307514	0.0444135153832	-0.0151755655958	0.15225783997	-0.183711065919	0.0430219359741	-0.163509143419	-0.105707886798	-0.122909844953	0.212111768609	0.0679270601713	-0.106429340035	-0.0221240184615	0.188884012923	-0.255255247075	0.144828144535	-0.0859835113187	-0.0802788159125	0.0156609143304	0.0335687222952	0.053817455079
basketball	-0.0470126138661	0.182521503002	0.37614733203	0.00374102810049	-0.156362215918	-0.0625175463322	0.0234167398398	0.260174036954	-0.00570865623282	0.127941110534	0.0928322339203	-0.214020071057	-0.083854734772	0.0268214285533	0.0999665590532	0.134743652953	-0.098038801805	-0.0825469697722	-0.0543807532553	0.054205036573	-0.487633159095	-0.00130719541575	0.0677796486627	0.00607375961474	0.10369306276	0.0232817484177	-0.0233142147091	-0.0837223064783	0.233545697397	-0.0773848294442	-0.0729884948836	-0.0593822708787	0.100584557757	-0.069072604477	-0.152569070876	0.0805340597072	-0.213492351426	0.0970032979855	0.171317784559	-0.022591412538	0.00376124833459	0.171203582955	0.152463982617	-0.235718090999	0.0798123967043	-0.0670642510844	0.0292771902243	0.0116984021988	0.0446101083046	-0.123275077922
Asia	0.0698922480387	0.107263583979	0.211645737759	-0.133172925888	-0.0767064366608	-0.0648794026464	-0.00475728472361	-0.0219354061917	-0.193590801362	0.0107642676531	0.201378865678	-0.0458996111445	0.0175830315301	0.0746916904685	-0.183269026222	-0.0204919132588	-0.0941649558958	0.218660910794	-0.0738498435599	0.0585554199105	-0.0440394432083	0.264557580704	0.161185251049	0.158510034126	-0.108428966772	0.406153877736	0.137329218195	-0.0649728685687	0.256186824991	-0.0733759778699	0.00528768749247	-0.171402775737	0.0526886358644	-0.280836664576	0.0086789318132	-0.125620487201	0.106264871187	-0.172736462552	0.166176527382	0.0639597764039	-0.0344801016235	-0.235053068825	0.182030766154	-0.132470951059	0.00621090857815	0.0561648492055	0.0949532069608	-0.0189118162857	0.00611874987155	0.10701129135
Atlantic	0.0556071175402	-0.114224992501	0.437076962349	-0.135851662869	0.100933324379	-0.0966942018603	-0.250999590942	0.0237460654522	-0.172081453922	-0.161726429201	-0.0138968772245	-0.0540849551618	0.0347900514418	0.0306426574856	-0.213520496749	-0.133624586428	0.00357276104089	-0.0683537318845	-0.155229321705	0.039101626231	-0.0789839422931	0.160692156424	0.103117195337	-0.055066384311	-0.0141690717634	0.0885024424058	-0.014958402691	0.0786592364758	0.250206936516	0.00582077552281	0.0756162411185	0.0670093766835	0.0888361216695	-0.366536036008	-0.0261177140836	-0.0529695890173	0.0231182565586	-0.165212779278	0.117598675973	-0.220415094683	-0.159416597645	-0.17375250904	0.175838004438	-0.184361449057	-0.104434630199	-0.0180592269247	0.174382976732	0.0542720681354	-0.0232162997685	0.0430150458828
Korea	-0.0267172269708	0.0258291676144	0.209655665152	0.0581997959548	0.00744562324072	-0.115252689195	0.0468345447152	-0.0101360434938	-0.220454621993	-0.114659257993	0.076639104969	-0.0374628048247	-0.142228461317	0.136483510511	-0.234426795628	-0.0949251357733	0.0332133602884	0.31363763461	0.0643998100848	0.126265460193	0.0178572096644	0.132387045978	0.197018264411	0.124433576839	-0.0059474331109	0.397597712446	0.0977533274913	0.0213223707529	0.189484372006	-0.11446900216	-0.0895923065353	0.0909363238353	-0.0183077998886	-0.249505017669	-0.11875095122	-0.0185204212187	-0.161571336433	-0.178299833987	0.286219622049	0.0725673915867	0.00391962799888	0.0147275310393	0.265236312239	-0.124636953764	0.132873719205	-0.0653588426201	-0.0606203392039	-0.0473990498736	0.0483348222914	0.0153364689862
evening	0.197120736221	-0.0389648834765	0.165751839107	0.11063977947	0.12281658572	0.0128618305561	-0.158351865054	0.34435613604	0.0257020630823	-0.0880979564225	0.188911854822	-0.0702905845309	0.165993900046	0.194988236402	-0.103451710616	0.135911104485	-0.133992547415	-0.0809938346277	-0.0700175528323	0.123752636185	-0.208351304255	0.0432286605853	0.0443900640795	0.0684975405398	0.0300701627507	-0.062004683742	0.124055823624	-0.015496790203	-0.0850550792676	0.0802285308515	-0.05436387128	0.0961878449023	-0.137632019206	-0.111888797614	0.0518483120625	0.188740293113	0.109212271948	-0.220828445373	0.354973809037	-0.052145794361	0.0126213996573	-0.245795360419	-0.124714359781	-0.20536221842	0.0587633492181	-0.0982783711919	0.115727949305	-0.0615649804542	0.0702803967809	-0.248090049218
Houston	0.0479610113193	-0.0545464496058	0.387866702679	-0.164414526435	0.0629880284186	-0.0983356515875	0.0462677975498	0.00413439400716	0.0896233218385	0.0475371976678	-0.0112756200195	-0.0174971091832	0.0803820753736	0.123703585726	-0.207773452117	0.201165564633	-0.0152729378617	-0.196431845061	-0.104551018243	0.185532419181	-0.134394166034	-0.027304347555	0.23082231605	0.068397604913	-0.141413962292	0.0377973068908	0.179965698299	0.0279087752103	0.178590854977	0.00513202277088	-0.202642109625	0.0509637616521	0.180823189643	-0.228305624873	0.0739945981987	-0.0893964488806	-0.0852467486019	0.129275068559	0.155224641015	-0.132117953389	0.0170239753236	-0.0171947252859	0.0886821562097	-0.29450320836	0.0461194967857	-0.355231690963	-0.0178076564254	0.00374085275942	-0.0561658531326	-0.0584590727456
Miami	0.0292000581518	-0.0229428560822	0.486143038848	-0.145712629639	0.0357445940821	-0.0409997274939	-0.0323983654649	-0.0366779382402	0.0264137705775	-0.0110178463429	-0.00745366288374	-0.186919185151	0.054721719271	0.0264376605226	-0.249841373536	0.101724695445	-0.0230806323411	-0.261740529773	-0.205471854739	0.0913580955518	-0.146500997828	0.0485194968012	0.0726241241881	0.0584583684985	-0.0824765993715	-0.059251645581	0.119139810933	-0.0452498469122	0.251117685673	-0.00953503344664	-0.130994787135	-0.00235823211891	0.0880570287487	-0.247264204796	0.122606471055	-0.018498017248	-0.142732931687	0.000716371094683	0.157856903258	-0.190754994014	-0.0782022627486	-0.0539101156553	0.172418970229	-0.249249688319	0.0242342221578	-0.268504984102	0.120742400815	-0.00659362485869	-0.0868530409655	-0.0526144952058
Korean	0.0147498629899	-0.0309226993186	0.169369687927	0.121192306814	0.077009316131	-0.0909645199311	0.143887857653	0.0856056180075	-0.265122353427	-0.0924670495937	0.113340640075	-0.0613403365203	-0.122561338555	0.12898430631	-0.220695872177	-0.0636809197312	0.0149791901205	0.279428026942	0.0729118641007	0.110041463432	0.116490648612	0.0306156239623	0.281111366432	0.127472736156	-0.0608714363689	0.41636977374	0.0671138956472	0.0588906647137	0.198418594738	0.0135013711342	0.00314699503951	0.0967365723094	-0.0434766269592	-0.136114843189	-0.165957505141	-0.0157346738478	-0.0881815553433	-0.0699676774172	0.325799117882	0.0860690938641	0.0520961327635	0.0185185424847	0.239715257882	-0.135470256156	0.0796702340855	-0.011689053968	-0.0460260455203	-0.042420998919	-0.0278522471058	-0.171445384741
weekend	0.226513688359	-0.0498331414318	0.308339217205	-0.0083902738125	-0.00947800810261	-0.00420756269339	-0.193510033037	0.192618052686	0.0650101890172	-0.0848524505948	0.138139578521	-0.131100465686	-0.0187243230664	0.159708068682	-0.155376248117	0.0301289016745	-0.210311991249	-0.155355602194	-0.163003769765	0.159168598354	-0.293960860984	0.109651645414	-0.00297874792769	0.0962589408624	0.0719456899039	0.0532725993136	0.19381857489	0.0104709240785	-0.149233703616	-0.0406009727487	-0.0157237822198	0.160796185304	0.0330460941643	-0.0777988091472	-0.0212679772781	0.201305016062	0.0216923657006	-0.0633256346121	0.42368760811	-0.045631696049	-0.0458381552816	-0.15234550305	-0.0470516767708	-0.170948244568	0.0365991046241	-0.0809916629457	-0.0337392619211	-0.0158679213506	0.054363774591	-0.225667205505
Harvard	0.0693733277538	0.0597304939696	0.421299449541	0.069737195814	-0.0346589280175	-0.258071275471	-0.118648393297	0.230039897095	-0.000141981185015	-0.110451786467	-0.0274053404072	0.0724430930493	-0.0524749252265	-0.0164975533212	-0.0364852022833	0.270919912338	0.0185348182318	-0.155648359923	0.0352559093722	0.105404190245	0.111250182991	0.0564474267077	-0.0658446000229	-0.00881207875742	0.0256692076844	0.10318895357	0.0890789954787	-0.0289298221077	0.134831606878	0.00531769066203	-0.0593441730708	-0.0947516391033	0.160562559868	-0.0763343680851	0.168826525214	-0.069770544883	0.0720174796831	0.058969738969	0.127213160641	0.0634163915704	0.130020756028	0.00372684101225	0.333612530053	-0.320926346078	0.315890636653	-0.0413627512718	0.202802622788	0.0193272713574	0.0415555815324	-0.032294115815
Kansas	0.0593884974335	-0.1405161024	0.429878989223	-0.100631537731	-0.0552786787585	0.0500012880239	-0.02032642112	0.00086212634853	0.0455163656942	0.0641768252834	-0.181762348713	-0.0478182838486	0.00870840877881	0.128236485323	-0.216799419998	0.115686980145	-0.0849139076694	-0.153599846116	0.0165200079652	0.154690765292	-0.0851712631683	-0.0419702225967	0.195935554325	0.00909487921091	-0.133119244862	0.0259713376576	0.125318138085	0.0205782389581	0.0388076353729	0.147284872623	-0.108550975575	0.0584010450775	0.101951541191	-0.265176424675	-0.0795557836696	-0.102912762522	0.0782453982528	0.220650134439	0.158503881931	-0.187822298354	-0.0900318720643	0.0203354562507	0.211598682147	-0.317298345326	0.17489011167	-0.266925742573	0.0165307918309	-0.0479234994037	-0.0569947706923	-0.086813325321
shortly	-0.0392597105587	0.0528536472332	0.27741056975	-0.0226268027727	0.0153299745583	0.000949050128739	-0.204585449405	0.209296116018	-0.1461030502	-0.109276688086	0.000139542540115	-0.230802959211	0.303275000737	0.398321164711	-0.182687324104	0.063210357833	0.0529931897733	0.0233948899532	0.20817213504	0.0285467040207	0.113621809544	-0.0490815751113	0.0931146861056	0.0458302741406	0.120778693079	-0.0217103259747	0.258395385285	-0.241941429747	-0.145481744078	0.0378317118268	-0.0145445953628	0.212169807637	0.0607725858498	-0.202340302426	0.172528868467	-0.0253858845241	0.0340186214367	-0.115794571343	0.0955781950415	-0.0193501669893	0.0214975939755	-0.152756454599	-0.0189934689112	-0.167978253528	0.0607275461826	-0.100542611923	0.0074637162667	0.0637990906247	0.014047148325	-0.0796253058012
afternoon	0.123728348483	0.0213122133343	0.263583981989	-0.00235331121933	0.0947914222397	0.0064862754441	-0.190840568881	0.236799239152	0.073613937517	-0.135413835788	0.107396847313	-0.035861359206	0.111891532767	0.166870843337	-0.102287969249	0.12671399628	-0.13909744728	-0.0826986607657	-0.0297001310137	0.132316235849	-0.162295861174	0.021411426094	0.0152034868358	0.126294368771	0.0622457766267	0.00338558717086	0.166326524305	8.60873362715e-05	-0.0769084188073	0.174086351867	-0.118880048679	0.107141287597	-0.0937421604461	-0.152095476931	0.0176780152013	0.224643552854	0.0316913349621	-0.193577991758	0.335849475265	-0.0569959932816	-0.0214731927927	-0.275346291625	-0.163993673304	-0.194712954846	-0.0626009351441	-0.179020739007	0.129891120843	-0.0623102456184	0.0833468250599	-0.294724821249
Atlanta	0.0640065958196	0.000527354999771	0.484386740065	-0.115026915159	0.00529717243716	-0.0759834918465	-0.0208732982597	-0.0762637688984	0.0175712642902	-0.0430662609074	0.0602780810513	-0.118531335974	0.0726153788909	0.121075217326	-0.20080925027	0.0447191932251	-0.046962367307	-0.109856473917	-0.151851425273	0.126354194101	-0.121159491975	-0.0102029785125	0.13147834813	0.0835487376937	-0.188312660575	-0.0138976557325	0.0376749179346	0.0362633175659	0.158172981605	0.0307165134037	-0.253702765213	0.0763269748851	0.162143466767	-0.234659567567	-0.00384981918719	-0.0387647423711	-0.0687563022612	0.0244811470535	0.177036137956	-0.0566881086981	-0.0551647805753	0.0332061269892	0.184469225831	-0.380653904744	0.0795756987547	-0.323403326609	-0.0661958213574	0.0312397185155	-0.0261985622465	-0.0648088010947
Detroit	-0.0433957831	0.0249763277593	0.468761595413	-0.225975778566	0.0469182505045	-0.0258579888518	-0.00842301222385	-0.00403366375961	0.00967610196915	-0.00287728683825	-0.109095599751	-0.12139901322	0.0554575751611	0.13097743845	-0.0871180121439	0.151851664471	-0.132123533609	-0.0510691906121	-0.149628876046	0.117731637232	-0.080079503436	-0.00318606100369	0.248721927884	-0.00859362521225	-0.0751050584522	0.00604342692804	0.044907844726	0.0300217811619	0.147085746473	0.138987573668	-0.14684059071	0.17736232255	0.196863290732	-0.135710262026	0.00480061894475	0.0476938809264	-0.00366737598791	0.216086972645	0.172355425755	-0.0903439149753	-0.140444049518	-0.0512735406321	0.115994340757	-0.362053292279	0.163828631995	-0.20709525046	-0.135719901178	0.0160334439436	-0.0245316415522	-0.137583149238
worldwide	0.21122363088	0.0769665555738	0.392387070314	-0.0366006976908	-0.140538141986	-0.00341911188946	-0.164173821031	-0.13172802285	-0.0118004404462	-0.103263520058	0.350792450972	-0.0947414523036	0.0749072781879	0.148435389565	-0.165199593263	-0.0492262410175	0.00682817097905	0.196253078664	-0.255755987657	-0.0299461308323	-0.0236476650764	0.298996946299	0.258296252852	0.130370121578	-0.0611886861999	0.257420885972	0.0175158438105	0.0415721938657	0.0573496765934	-0.0119802309052	0.147285890566	0.0953991374019	0.0537043767072	0.0261523588252	0.213385756142	-0.137764342518	-0.0424007765615	0.0400495813337	0.11158917157	0.0903224734746	-0.103012973354	-0.00805190603844	0.075749780145	-0.117454206993	0.0884112815636	0.00859939698444	0.0502802384178	0.0858686964923	-0.0696106126023	0.0118402649995
hockey	-0.00590756404709	0.106054749381	0.424734631202	-0.0805119312623	-0.0657202525502	-0.0878445093741	0.0764822990681	0.260475719527	-0.0338984832514	0.00212797737473	0.0915886479354	-0.144007133149	0.00171623393087	0.0931611806775	0.131249085301	0.0348763057611	-0.135929872027	0.0415939954848	-0.0867857015645	-0.0169597397201	-0.469523046849	-0.00195619037497	0.0562234309194	-0.118279166819	0.256425091143	0.0669571189484	-0.105034389138	-0.0310626343666	0.1238537913	0.00680249251247	-0.068030651358	0.146487137534	0.188658664552	0.0326327130088	-0.238207761514	0.0660883675497	0.0324647434979	0.0932462561441	0.108872056177	0.0280247312487	-0.195721837019	0.131463137356	0.105553840304	-0.225536697877	0.13237660791	0.00474432064875	-0.0438719456371	-0.063084549154	0.0883585069844	0.0186386167955
Maryland	0.0294771156123	-0.142273204263	0.416470838503	0.00676183360781	-0.127190797527	-0.129120348301	-0.130302566899	0.0622166724056	0.0586782639102	-0.0565844015635	-0.0407039100431	-0.0781986691451	0.00708569869734	0.0373913506601	-0.197500290726	-0.0981517403761	0.0285629342332	-0.116075658838	0.0595914936779	0.201548128539	0.0557603060664	-0.103654909268	0.101292058091	0.0056335396573	-0.0417678116202	-0.0721470548668	-0.01503863261	0.0497819658681	0.0826823449928	-0.00188228740577	-0.162445146123	-0.113396555462	0.0914746001855	-0.310619292855	-0.000435520830489	-0.169413479411	-0.0392390628506	0.06798153444	0.198817003739	-0.0411394308736	-0.072493124223	-0.0645566849085	0.366733281169	-0.395153790891	0.162954892645	-0.0537885671863	0.0926292220522	0.0716658566878	0.0651032270723	-0.142978348332
presidential	0.119977463932	0.156856675078	0.154865713634	0.244132244697	-0.0509851847321	0.034495111211	-0.177291943303	0.0529934818797	0.063480700869	-0.125871603037	-0.0668009287794	-0.184332295601	-0.0415980483354	-0.108648728772	-0.166630485805	-0.163188907972	-0.274953655946	-0.0121649624732	0.226242386595	-0.0303968334327	-0.0332774984268	0.115488985918	0.184843845759	-0.011732157543	0.203673651568	-0.0113510658969	0.287901369495	0.0605227597739	-0.203346917636	-0.265885907845	-0.0954177674615	-0.118696972496	-0.00810253140335	-0.00707561135495	0.0702830545286	0.0671508749246	-0.00196598627864	-0.0381441298322	0.101373022266	-0.0817008188093	1.76295287279e-06	0.0767469212367	0.0966439011845	-0.347235017556	0.0468525293728	-0.297280572604	0.0123638823224	-0.0965625115269	0.0895406702346	-0.0359304486749
Seattle	0.02783883384	-0.0427479356141	0.455271829998	-0.113185546862	0.00425571206116	-0.153600029999	-0.0141871626188	-0.0036661340167	-0.124657291057	-0.0766871385193	0.0832000442447	-0.128014358521	0.0254744747078	0.0572565946366	-0.195337452361	0.0954068293295	-0.0554623289184	-0.0713130758541	-0.197534848366	0.158244090903	0.0231168344137	-0.103415684361	0.0421361854038	0.0561335408459	-0.058882889402	-0.0248133410374	0.219663677635	0.134352574455	0.236770511356	0.171636750915	-0.164170442061	0.132903657016	0.219257523871	-0.172172242313	-0.0149961107277	-0.00902138393515	0.0389527999056	0.0993756470033	0.230995669998	-0.0793504859475	-0.112445130902	-0.0444981929427	0.115716197237	-0.342639243513	-0.0332770614091	-0.244503222141	-0.0805101574059	0.0677641855625	-0.00345751409327	-0.0470123821648
Dallas	0.0287377203983	-0.0303696180194	0.379662511761	-0.156114585894	-0.0311702647046	-0.0584570803618	0.048036497569	-0.017735327766	0.08768282338	0.0190095176407	-0.0609363537389	-0.0940399514793	0.134892348027	0.167834039409	-0.22651752541	0.172704393269	-0.120847629622	-0.21397307344	-0.142642134068	0.162458879953	-0.228264600318	-0.0535064314786	0.210490441352	0.00820062285093	-0.149213820999	-0.0343985195268	0.115400402091	0.0364378156667	0.211895275179	0.0415664957282	-0.138905124714	0.0681188093707	0.136294549229	-0.181638859979	0.0843617685721	-0.0743660254302	-0.0264150881318	0.0758527996694	0.140352409597	-0.124892985027	-0.0470742736036	-0.0298924549723	0.0792449353174	-0.304754494925	0.137505556135	-0.335357758298	0.0267589746037	0.00163354301091	-0.0826706369176	-0.111078621196
Reagan	0.150173967232	0.178953280131	0.278636668022	0.216314606558	0.0216946587718	-0.216192718122	-0.116168872994	-0.126056961149	-0.00734681806289	-0.129309098834	-0.156350537683	-0.0757582597102	-0.0359048930713	-0.118801188706	-0.29514113332	0.09453352733	-0.081806417284	0.00435773400945	0.180980602146	0.100742719991	-0.0244556839269	0.0687533817122	0.335113719305	0.0224070091931	0.0561967968503	-0.00244429316087	0.0675840237975	0.0781396809771	-0.175362761168	-0.000413115793873	0.0165195901408	-0.136424892343	0.0692097960746	-0.200846044682	0.0736523478278	0.0568744491038	0.0309569936421	0.0287460975593	0.203105280948	-0.139155964379	0.197285775403	0.0463887813909	0.252044822527	-0.208718673443	0.175602386122	-0.219320001716	0.0312962646171	-0.092309285798	-0.0015673488662	-0.0444940241712
Cleveland	0.0442489842247	-0.0576571215237	0.468578251218	-0.210776442928	0.0593243272497	-0.0230441601677	0.0101212666199	0.036968032886	0.0830438942602	0.0647170902352	-0.0692170702922	-0.0627489022366	0.0944599092403	0.0444168523332	-0.182923451613	0.164549434682	-0.124828627111	-0.150739987686	-0.0240612048407	0.211280375121	-0.131124336914	-0.0414450622249	0.177276263525	-0.0656344632188	-0.109156237552	-0.0483351956236	0.108112307752	-0.0211608898255	0.0764626119518	0.160827811832	-0.122564374851	0.109888693322	0.128924346664	-0.260139830716	-0.0476555265046	-0.147617378574	0.0961730164023	0.229951767782	0.117340791443	-0.0900881253366	-0.00783176856977	-0.0352585322654	0.119779141293	-0.33279590216	0.119027013478	-0.222410817596	-0.0593220321779	0.0945789251063	0.0559522110467	-0.112214584653
Pittsburgh	0.0394637882164	-0.0576224063792	0.438809673633	-0.203910388192	0.0708817055977	-0.08893784404	0.013326608384	0.0629589317049	0.0534680361722	-0.154219851539	-0.0867663654659	-0.0277438071661	0.0498585063726	0.044998299511	-0.166643243688	0.169683071136	-0.160666068512	-0.0479438334886	-0.0734737148591	0.161801228493	-0.145116135305	-0.0333310742931	0.0915738164951	-0.089404460282	-0.173784382316	-0.0773818911813	0.0925867891167	-0.0347870139905	0.120835415024	0.141199772733	-0.0892128413964	0.127712471296	0.12588511841	-0.229610058448	-0.040414605978	-0.103094295604	0.0260871527499	0.254118477753	0.127678210324	0.029262204918	-0.0971917062604	0.0468477855906	0.158322678691	-0.416261406379	0.168615523516	-0.129774193483	-0.101887581736	0.047993860571	0.0529080360428	-0.104403792388
Baltimore	-0.00268724715753	-0.0478912445369	0.408143353695	-0.118204982289	0.0702757654407	-0.104077713191	-0.0623982367535	0.0257706468912	0.0677620611628	-0.0598886121455	0.010468119051	-0.113240651706	0.0502593359827	-0.034249769973	-0.221651915755	-0.0216115803749	0.00502960530115	-0.128982214788	-0.116305425236	0.203253232309	-0.00665707975624	-0.0636133507316	0.0805951334521	-0.071347463332	-0.137562074333	-0.0981041350473	0.111615373996	-0.0345924622416	0.1265469657	0.158601873286	-0.159458603957	0.0367691230246	0.148521009051	-0.291671917277	0.0161489024267	-0.150736897429	0.0582843604265	0.110201611478	0.166373330556	-0.00752856000341	-0.0180318269794	-0.0369683992064	0.296917431261	-0.431787237304	0.0896221875787	-0.152417407592	-0.0234747342199	0.135598811666	0.0339798841204	-0.155058209277
soccer	-0.10710612907	0.14592037085	0.408483810058	-0.134342685605	-0.0733925287119	-0.0536371780147	-0.0351052961165	0.237144957307	-0.0042114854733	0.0731603755073	0.141750177449	-0.298486930083	-0.0323879719139	0.0787023832995	0.0567166489817	0.0392185982186	-0.146543422336	-0.0613973347394	-0.0900231400965	0.0804152396181	-0.497296939512	-0.00281367237046	-0.0735934834621	-0.0574972220755	0.2085475976	0.109277480321	0.0309344909807	0.0447569356045	0.162176294915	-0.102406173678	0.00906682140207	-0.0810572548703	0.0605311188298	0.0326684521361	-0.128746233452	0.00808743462849	-0.124122438993	0.0836767015689	0.132810596802	0.0632588425171	-0.0377629762151	0.182361389028	0.207012450124	-0.134595943647	0.00262770511302	-0.0782747809542	0.0413899494696	-0.0638601774318	0.0633129810115	-0.123891509257
Yale	0.0442021670311	-0.0430846496502	0.434421617797	0.0491480740543	-0.0065345902871	-0.197191597864	-0.103064533709	0.271517682209	-0.0308496862908	-0.107372765093	0.00200912874016	0.0601113566914	-0.0323179085889	-0.00871923832926	-0.105687646319	0.306498412148	-0.0323636236922	-0.184063688398	0.0225251995476	0.181715533782	0.093904495003	0.00465993736196	-0.0327136612356	-0.0605187883792	-0.0210633173003	0.0231495277111	0.0617954744047	-0.0205367593943	0.160337549748	0.0319318328618	-0.0257229209754	-0.0623630757977	0.13922150992	-0.105812445214	0.103582415756	-0.0217500449116	0.058158621035	0.120624472394	0.125210998641	0.0561778556801	0.116419350257	-0.0157310008632	0.302035350049	-0.348870973984	0.292566317287	0.028696071129	0.210760307707	0.0493469514383	0.0455525978585	-0.0170820990643
Taiwan	0.0273975747036	-0.0104975065042	0.354537831403	0.118835202122	0.0321093476416	-0.114879201533	0.0894024855612	-0.0897730034817	-0.175056785374	-0.054605078526	0.110040514177	-0.0507705789434	-0.00674902001036	0.0517997285568	-0.134944611544	-0.0625471542104	0.0532054109921	0.300970924842	0.0335935245389	0.0878701894535	0.237477626657	0.196252094596	0.226128710872	0.0950916799615	0.0485961921213	0.329717341164	0.230449214481	0.0379092162259	0.230075087619	-0.0916980726446	-0.12624435755	0.0312606450674	0.0844534247667	-0.141730021708	-0.139224514569	-0.0167160122194	-0.102468354923	-0.12039366305	0.291853537443	-0.0577283160291	-0.112245576996	-0.0708564396195	0.219707202238	-0.0398081205682	0.0282640212367	-0.0265386467971	-0.10648480527	-0.06342051788	0.0757718169667	0.0646400391198
coffee	-0.0798510625122	0.0379031782885	0.213919850852	-0.0988236768796	0.0107228638034	0.109990976294	-0.0303392260599	0.0990339291111	-0.0288360080735	-0.210048816679	0.452473742011	-0.0255940212268	0.166571732079	-0.0293727495424	0.0680591601272	0.0120377094654	-0.0541838803464	-0.0449806444597	0.0255177834258	0.0201777186208	-0.106743861344	0.235481815465	-0.0389243545736	-0.145184122975	0.199106811932	0.204520379549	0.108562286741	0.0388993978046	-0.164489722177	0.0948805073879	-0.0752802131881	-0.0833935562068	-0.0799071297739	0.0757848185435	0.0728768421523	-0.18297414112	-0.109617650381	0.0995693030858	0.396095375366	-0.156375695412	0.037895998944	-0.179422758713	0.13185686649	0.118611659657	0.0999104928857	-0.163148210379	-0.0692167439575	-0.131292091391	0.0952514401864	-0.0640742820627
NCAA	-0.122778337266	0.0207501097962	0.345807273338	0.0821724863576	-0.272041710793	-0.0842240508855	-0.0821308878142	0.0647280426313	0.0961640146245	0.0849118449841	-0.0417507562744	-0.157630353283	-0.167853904395	-0.0102408050534	-0.0701445984245	0.0860272059296	-0.108288099189	-0.074948048413	0.0641567717253	-0.0408913681842	-0.359587263557	0.0513342570707	0.0151501422434	-0.0238312382738	-0.0426912142533	0.0320672771607	-0.0244722340111	-0.119888420275	0.240821531244	-0.15111899946	-0.0379730885499	0.0811199959379	0.136610325665	-0.187141447221	-0.146810477597	0.084383118043	-0.126890447826	0.0162969384518	0.236799944787	-0.0188930657299	-0.05286205812	0.181394939345	0.079494107414	-0.355002914988	0.202599324144	-0.0488938879751	0.156628679266	0.164565255911	0.00566047452513	-0.0405770155549
Gore	0.164558114621	0.320867975813	0.242945421328	0.0895690761581	-0.135510593768	-0.113608765073	-0.164257631184	0.0327837907131	0.2309108738	-0.145328526699	-0.110598860685	-0.0762004362533	-0.0402766105302	-0.0752979719393	-0.298857648599	-0.0311204847621	-0.221274447736	-0.115921710129	0.0984220144769	0.0565236721944	-0.0482433086126	0.0701312792415	0.243363529326	-0.0386099245631	0.0906168811668	-0.0709042889367	0.0681877699511	0.155342500568	-0.0556222218853	-0.141206934997	-0.0134430002602	-0.174235100879	0.0170241273787	-0.153306378835	0.16830891855	-0.00872686371615	0.102203576553	-0.0162365836141	0.145208536126	-0.256892381997	0.221020270521	0.00152979531273	0.144492648704	-0.137533871439	0.179130040277	-0.162290461781	0.036972306735	-0.105627194919	0.0193884486807	-0.0688904753102
Caribbean	0.0190500832001	-0.172909184925	0.418719197747	-0.0890104013106	0.192528341864	-0.0442494720359	-0.0552104940986	0.0259330389364	-0.160924657446	-0.0406057454791	0.0741444578909	-0.0639829755672	0.079369535772	0.00619067132809	-0.214394542305	-0.118305289157	0.0254623564514	-0.033780701712	-0.17679549172	0.101312558213	-0.0859454989774	0.234472858429	0.118286970065	-0.0179618700223	-0.0482560348083	0.318428963073	-0.0124457549485	-0.00599625257409	0.13517983241	0.00031644754641	0.140882093099	-0.0351289278131	-0.00555452607373	-0.151001323322	0.0491651936322	-0.0632135736897	-0.0307592333557	-0.101642597344	0.283332536876	-0.157405323435	-0.122306533484	-0.058611935886	0.327994483958	-0.0993172544959	-0.204792383235	-0.0894021935109	0.17507054235	-0.076737200393	-0.0135481506494	0.0947558005076
Denver	0.0521318069054	-0.0544080102368	0.434075514448	-0.133077608415	-0.0692832906601	-0.103180238024	-0.0786387943898	-0.0412659344521	0.0386050114675	-0.0137509421524	-0.0626961954738	-0.10898314741	0.0403611550974	0.143954622664	-0.195625355845	0.186017523212	-0.041551688743	-0.228161037929	-0.130589383264	0.206948697324	-0.163666425542	-0.0319589303038	0.189542590767	0.0431223542436	-0.11519371544	-0.0679030187868	0.175917485366	0.0338550017802	0.210044150343	0.157945113425	-0.147296505989	-0.0102727356797	0.115694768549	-0.176440822067	-0.00719497845425	-0.0585599676523	0.0693442428368	0.0976863496209	0.159627196883	-0.131527260307	-0.159560673808	-0.0443105939902	0.0383857802512	-0.27564048971	0.194729752087	-0.277592925565	-0.0687710957555	0.0298419891117	-0.0302853670425	-0.0229838861289
Princeton	0.0830873342308	-0.000414424043745	0.440574267856	-0.0383469446552	-0.0496619261597	-0.21566218838	-0.121639482391	0.296623507181	0.00184984431804	-0.137070250339	-0.0527272581214	0.0957416619381	-0.0697052538005	-0.0188067505667	-0.167737964329	0.244392018049	-0.071446638191	-0.163804283442	0.0257722881291	0.159949938984	0.0850945123942	0.0651084274929	-0.0526328578142	0.0370534595946	-0.0551783185805	0.0311701780366	-0.0233660845537	-2.20936889234e-05	0.151985164127	0.0153213037627	-0.183465323314	-0.0613869799208	0.126754171376	-0.13682588075	0.0981421747149	-0.0312264165175	0.0572541210807	0.0670198663377	0.0960108032395	0.0971141486742	-0.00096408824393	-0.107997633739	0.296731297603	-0.311790489874	0.303516068619	0.00960707240019	0.10018818421	0.0520902234241	0.0411672375215	-0.0861058007917
championships	-0.0934988964348	0.17885967443	0.405342442446	-0.0656059550102	-0.0847079500517	0.0435930739108	-0.151367701663	0.192100857811	0.0913010242851	0.120083470893	0.0675828741808	-0.171736313046	-0.200236265171	0.141002973631	0.0553605144759	-0.0108131405814	-0.0835221238788	-0.0451907130595	-0.028236977413	-0.133697698813	-0.395307923896	0.0984821316618	-0.0195243812274	-0.00533269337437	0.0216650495997	0.132877055049	-0.00295426332997	-0.11026773646	0.0922433955189	-0.252595343533	-0.00421654194467	-0.0216561030374	0.103661649044	-0.00874973797481	-0.245032245055	0.12948088576	-0.0359163812017	-0.00219299220668	0.187384663914	0.0442459018541	-0.0643347298332	0.0928951390304	-0.00195387499487	-0.296934506522	0.119226769772	-0.115083155865	0.0210659010304	0.20748189624	0.07751030509	-0.0271755897892
sugar	-0.0821517025597	-0.127585560525	0.177287634944	-0.152371806759	0.0493677648191	0.0910925613259	0.0137753305937	0.109898511769	-0.00217478749182	-0.0851510217805	0.404872888752	0.0337534355791	0.184178258733	-0.0181391063391	0.0691591889574	-0.0823082067881	0.0459007080082	0.0870240430852	0.249006215357	-0.112617070096	-0.0308987866186	0.187685255186	0.0243001659932	-0.156443283492	0.10295197248	0.250775097742	0.00947042883971	-0.0165986195386	-0.12753940805	-0.0760027727229	-0.0454001311566	0.0130129271974	-0.0965737595113	-0.126543875481	0.0795967488419	-0.220601141671	0.0038936713617	0.300073337999	0.253427385848	-0.293887131162	-0.0987695522965	-0.129655025701	0.105958687931	0.0613452198057	0.0558968608818	-0.22092835089	0.0222369136509	-0.0997653807141	0.103708458893	0.0420913536694
Cincinnati	-0.00695852134902	-0.0816087226871	0.50793127377	-0.146029941973	0.044180478083	-0.0512504185252	0.00793558108908	-0.0135535268238	0.079965512719	0.00746507924208	-0.0149600081616	-0.020376394688	0.0658820802346	0.0881537816718	-0.181490767736	0.100815069126	-0.101558651191	-0.16014647509	-0.0333595266847	0.131499946492	-0.113721360369	-0.0102360750445	0.0544082779694	-0.129968451159	-0.201938092351	-0.0707339827611	0.0765670826067	-0.00441745672558	0.067616316942	0.207589434259	-0.107207037686	0.138098498463	0.045290826977	-0.228094980522	-0.0580274774785	-0.0695597969331	-0.0185821630843	0.189538359001	0.165450555899	-0.0653894127855	-0.00985807764357	0.00926876816937	0.182758640176	-0.425161369075	0.150145355428	-0.204321633429	-0.0454903173958	0.0740416816754	0.0454155454314	-0.106015414918
beer	-0.119910467741	-0.0190669603551	0.248142646641	-0.0631575407784	0.00665584030102	0.0424021124734	-0.107713023123	0.149874875347	0.0185495534277	-0.147284849918	0.432745263504	-0.0968285359684	0.0598812948586	0.0629937118669	0.136926742066	-0.0799355487148	-0.170115222896	-0.0413925541912	0.060597755575	0.0251831289476	-0.193336060317	0.210853126061	0.109332038248	-0.253786270179	0.14437281594	0.105740097672	-0.0330801477161	-0.00602411867676	-0.0250216262073	0.243962849382	0.0517496651134	0.185452998576	0.0100869427579	0.0656890796177	0.0253519425116	-0.055901880629	-0.0863564457289	0.17217421668	0.295512131466	-0.152010965089	-0.0181976369626	-0.117347691746	0.0360210926791	0.0832111300142	0.252364647291	-0.028876756435	-0.190349256551	-0.0491888829795	0.140068734679	-0.0897154368799
Baptist	-0.045013489394	0.117338698463	0.0873657571901	0.0290397619074	-0.0632849768452	-0.105881888138	-0.121149409367	0.17909640526	0.0333866777354	0.171729680791	0.0846484778048	-0.0427833643687	0.0799630826184	0.359880332721	0.0423763360854	0.0843404646353	-0.0636146210087	-0.0978113947062	0.0849318133613	0.140146906098	-0.01688405721	0.227944673847	0.190739973322	0.0163402357387	-0.0925504932121	0.0116438727243	0.0355040778619	0.203928786484	-0.0468042919758	0.0504410409412	-0.107509391947	0.0724342780248	0.122319311019	-0.129010600081	0.203661598008	-0.0872874590847	-0.0382131313762	0.101567571132	0.131443325262	-0.103367208909	0.00485722449159	0.0643604333123	0.385581000328	-0.279222316334	-0.00203575074031	-0.095690338637	0.156003338758	0.00733595361808	0.342949662242	-0.156465510843
athletic	0.0823855496842	0.104912585856	0.232920759667	-0.00635800848227	-0.17342292022	-0.23661650186	-0.0320866104738	0.133510087079	0.0837874795071	0.17845555265	0.142770603765	-0.154979685395	-0.173481424728	0.10819101664	0.062579595504	0.185702642931	-0.0784539222961	-0.0122184174558	-0.00437414552527	0.12143108462	-0.413440774569	-0.0548526437829	0.0917207529758	-0.0527850695889	0.0576813989639	-0.112988386263	-0.00478118752492	0.0461398288699	0.222667533517	-0.0837628951661	0.00836770055699	-0.0810903594682	0.0656377008026	0.0398630420711	-0.185318006913	0.0088982866498	-0.0855768460958	0.205095642422	0.185301202427	-0.0638859887108	-0.0769661028769	0.0572665771095	0.140870140851	-0.319467286857	0.216558169192	-0.0701637090923	0.184343969101	0.0055548162796	-0.0694355146892	-0.148119409491
Stanford	0.0267257837101	0.145018862829	0.480863468045	-0.0336756279476	-0.202087207475	-0.258595171649	-0.133855605123	0.226706636448	0.15472344172	-0.0853355266498	-0.0703164852233	0.0254617596696	-0.0312102354719	-0.0343356237916	-0.160881290945	0.236691053577	0.0397472377152	-0.0755341483682	0.115427817161	0.091232193519	0.0419011121524	0.0548644865232	-0.131854497724	0.0823481214612	-0.0733968178268	0.00210318675642	0.157131458557	-0.0250319703759	0.182778721059	0.0214598968689	-0.0847973220388	-0.10697142241	0.11840255043	-0.0310039647708	0.0933543881557	-0.0771723460526	-0.098016950796	0.113534421084	0.0990000806053	0.105301192928	0.0835012661999	-0.096083778969	0.223493600681	-0.318967015493	0.190068947153	-0.0818613085266	0.143183546386	0.0353719052663	-0.0276297140181	0.0253860801461
Oakland	-0.0557187945763	0.000562262241314	0.475675976753	-0.163345360563	0.0160356827691	-0.109740502366	0.0152180395637	-0.0423550692255	0.0882333657498	-0.0204041210879	-0.0329129412421	-0.109396964984	-0.0411560207605	0.0499216769849	-0.262234444026	0.0683530331399	0.0229733808232	-0.13977972614	-0.117724262661	0.130632967599	-0.072219191935	-0.10889165603	0.0452721075454	-0.0259952374272	-0.0771441365778	-0.0729826083402	0.223324745744	0.0843690246129	0.184021524481	0.147983726009	-0.206508378818	0.0440121675337	0.144495034214	-0.164394755177	-0.00793225998199	-0.0512334202526	0.00417243418622	0.214882026777	0.213099813002	-0.0655547484831	-0.0989726957361	-0.0271658092486	0.140370465025	-0.31622343397	-0.0690570727136	-0.248455686741	-0.013654550648	0.119599479942	0.025450848824	-0.181586468503
tea	-0.0668318813067	0.00538097124019	0.0406005301649	0.0741234732918	0.00321168085189	0.053958487613	0.0563080434298	0.174019440271	-0.0147673053437	-0.0340332131813	0.462912944525	-0.0238284547526	0.0960162436571	0.000121140938585	0.0317941944543	-0.0113766443783	0.0108101417928	0.117320339753	0.10507385845	0.0570165733226	-0.0635244444875	0.225015598142	-0.102372447652	-0.106450430813	0.266558906858	0.191925806169	0.0597362998589	0.0161101381881	-0.117988382223	0.0698822551263	-0.104709471648	-0.0341864869948	3.0204902459e-05	-0.04876067376	-0.0299793296768	-0.116819709561	0.00952868273956	0.0664993060509	0.468117184953	-0.108646070159	0.0392657305392	-0.322827426851	0.107619103475	0.0630970772505	0.235125885918	-0.139723380173	0.0494335361616	-0.0773078412	0.144565804429	0.0163077553691
Northwest	0.0985703964264	-0.155529924033	0.387774076551	-0.0378873395274	0.0437119856967	-0.0998356189725	-0.0056124333648	0.112594301022	-0.188686949098	0.0155195496263	-0.0991916266497	-0.00493377261351	-0.059346396379	0.228379498209	-0.0777714404602	0.0560196279903	-0.117085788533	-0.0910540009848	0.0129190673048	0.0758450664701	-0.0480574455847	0.0925513969458	0.260254491792	0.104142208198	0.0102415440311	0.158615414167	0.135255546914	0.0563603591106	0.171384601801	0.0191993056504	0.00395044991504	-0.0630832327449	0.207887655493	-0.229858334304	-0.134778943569	-0.176440939566	0.153369975883	-0.000783366409002	0.220986368291	-0.241093356432	-0.258141468586	-0.200488922596	0.221082319295	-0.213056052824	-0.0138498620814	0.0165739601125	-0.0468780186443	0.00143051040714	0.0195925646925	0.0360744258486
hardware	0.00852288400324	-0.0848052649502	0.230194282877	-0.123956645764	-0.271298193307	-0.180783887222	0.0157427640987	0.0884665873563	-0.0141225729405	-0.131590549093	0.145789207448	0.103816737537	0.189199724645	-0.211001654539	-0.0569221011963	0.0314114190268	0.0814153467959	0.285250479842	0.0124286019856	-0.272696056954	-0.0266611858727	0.180815507134	0.149690314193	-0.0352259003856	0.165115891042	-0.108840021814	0.01916463154	0.0712357111101	0.0656017672674	-0.0895907411321	-0.0555222613056	0.0113228931589	0.0553859004315	0.0632513537472	-0.0647572520956	-0.121670789566	-0.172545582434	0.00990790205989	0.27095070364	0.174585066811	-0.0297912278685	-0.12266121746	0.188699734773	-0.0316670133221	-0.027600560783	-0.200863849363	-0.143206255819	0.120810135063	-0.16182280887	-0.285477418592
blog	0.0972670981733	0.0518531038537	0.146614217457	0.144753723949	-0.369306952793	-0.0570321610445	0.0949641743333	0.0937242935855	0.0226812783753	-0.314462737493	0.0815749415077	-0.226674608323	0.0877060980145	0.0216226057954	-0.047503771632	0.0530825626104	-0.181817013851	-0.112554141959	-0.0725404199961	-0.179821706845	0.0106976695754	0.17892339845	-0.0759137831803	-0.0764251331307	0.0337692683271	0.070613024029	0.268852406309	0.248640467438	0.0623362821284	0.0309102808328	-0.0114500700942	0.234158942706	0.215276984377	0.218114791696	0.107220772061	0.0169730529913	0.0527060261577	-0.111218109939	0.0973397159178	-0.0785730718773	0.25216310043	0.0325599811661	0.107566042541	-0.148754087565	0.0748843594141	-0.166422052028	-0.0311920107857	-0.0184657510715	0.0468132306732	-0.136182140558
Milwaukee	-0.0287657109835	-0.0357871101912	0.538356250819	-0.118859474382	0.0245305858848	-0.0981474581109	0.0301885813817	0.000999964102108	0.0222705630916	-0.0379553348942	-0.0832498982329	-0.0138115711505	0.0471374533006	0.0655744357698	-0.086394127159	0.0864925647338	-0.0994759323598	-0.093409752902	-0.0389977339625	0.0753503550302	-0.0764617470028	-0.0062185989283	0.131555034788	-0.0535148225107	-0.16563406542	-0.0659318132405	0.113361981206	0.0521571922647	0.0446199339777	0.229962010141	-0.167775443512	0.172964633668	0.105728883404	-0.13890292343	-0.102704165199	0.0125809571299	-0.00574863889416	0.232590091315	0.227271864221	-0.118641526086	-0.1550972035	-0.0407367015581	0.147616236495	-0.364186695049	0.0954726118724	-0.108755044975	-0.209838309933	0.0731792435949	0.0428419954948	-0.163576113895
Protestant	-0.157549146662	0.051930893631	0.167464669532	0.0190210630648	-0.0758897241262	-0.0952694766231	-0.0819270114672	0.21302063271	0.0259035105012	0.131004625374	0.000611545938824	-0.0658307856162	0.06366060932	0.221701939218	0.0530018506783	0.0329492172516	-0.102423120931	0.170886500569	0.121501309723	0.0994258242427	0.0639384207494	0.34380607569	0.278730852977	-0.17633298763	-0.0872694695728	0.143395796847	-0.0951910039141	0.0854210013172	-0.195615025068	0.0547550091686	-0.0679829222092	0.054171124108	-0.0732429990035	0.0492859724787	0.236321615362	0.0624366154572	0.0406563797864	0.0636248305753	0.0357116971365	-0.0744218936083	-0.0139615276378	-0.0373878862265	0.313537257674	-0.278752801282	0.00308539057238	0.156815532065	0.0115853980633	0.0411073723667	0.326269078876	-0.1363052915
Vietnamese	-0.0166247626353	-0.0660340346117	0.0650330981636	0.0236053194228	0.0979461220723	-0.00372160461539	0.133095004021	0.069384571878	-0.0744932475158	-0.107368160208	0.0606204692412	-0.102945191033	-0.115697676801	0.0405940589484	-0.162299717925	-0.054868629894	0.0351166794478	0.33686149821	0.0885527412081	-0.0154291340032	0.110797283394	0.00691556091427	0.391466894818	0.0812451370038	0.027819415496	0.459582274552	0.0834239759367	0.133422051438	0.0848772245756	0.0419696079751	-0.124587044212	0.109797233253	-0.127021139665	-0.0328539367512	-0.0165254962107	0.0875488504021	-0.0845628808976	-0.0315504740566	0.299995248029	-0.0635960984931	-0.106010337328	-0.108725983087	0.322592245109	-0.176811819243	0.0273821705305	-0.0018086578912	-0.0191938722436	-0.137700847948	0.0545900339464	-0.0752460179024
Tampa	-0.0101467374882	-0.0108998873351	0.415769965332	-0.136041167283	0.0274473950868	-0.144818358971	-0.034938469449	-0.0840362706982	0.0289132706738	-0.0474146102514	-0.0232948932282	-0.132763947679	0.0252547456657	0.011662784839	-0.277368431589	0.00185492177749	0.000553036183736	-0.135462328478	-0.22451749572	0.0171796719741	-0.248468348921	-0.0421987536984	0.0114939210172	-0.102967653964	0.00541281656244	-0.0941133411088	0.138174470675	0.0580286618814	0.217646831053	0.168036131031	-0.152682711255	0.163765510506	0.150402619617	-0.188757929521	0.0823031946325	0.0235560730951	-0.040553693241	0.0567382441193	0.12211033203	-0.163193265704	-0.221452431002	-0.0303845934809	0.0902461015638	-0.3365057461	-0.0821658673479	-0.264802268308	0.0767573512223	0.0357463781923	0.0228863517238	-0.105592640641
noon	0.112592342189	-0.263878660624	0.152973708412	0.0310473229323	0.0535974744307	-0.0213154614343	-0.248783224796	0.267483053771	0.0679488923148	-0.0698424595132	0.142612932225	0.173045580046	0.182179675932	0.123817579415	-0.113341106658	0.185152187811	-0.123980741245	-0.0976550250068	0.0431479975399	0.0879353264816	-0.136305985862	-0.00522889165564	0.0320245139633	0.136257630629	-0.116634305697	0.0337988246971	0.157560039117	-0.0236267229167	-0.0728369240753	0.134938096413	-0.181563814189	0.0217491752435	-0.0119965476945	-0.102471265562	0.0857385749379	0.278125358279	0.0363302063207	-0.194468134972	0.308536350075	-0.0492297805781	-0.0945341841911	-0.203206489256	-0.0521340611471	-0.0950153632599	-0.0541388750475	-0.0438667995643	-0.0154484586955	0.000511141513824	0.212081009503	-0.295292949344
Nixon	0.0603800157261	0.160630270051	0.323517424827	0.183927434688	0.0214843993731	-0.136375502931	-0.00350221753229	-0.112205192367	0.0932589854915	-0.142852004232	-0.152921602174	-0.0720199275997	-0.0155888178881	-0.160313959372	-0.321344354404	0.0475631712232	-0.0355263456444	0.0604121284855	0.143114044348	0.0799504946433	0.0157519507055	0.0549214888956	0.251552731174	-0.00279670020986	0.127627666162	-0.0532949776356	0.04972114865	0.0571054776575	-0.209942944402	-0.00372540120962	-0.00896813029748	-0.0140833717308	0.120004418225	-0.179374166543	0.0248979856896	0.0104668327753	0.0286333418547	-0.0222477196623	0.211018400712	-0.154098213676	0.250357173144	-0.0544715891374	0.228081194253	-0.299843256396	0.166762522572	-0.287114721981	0.0193383036672	-0.0843843033237	0.034311519959	0.017344101313
Obama	0.116656042519	0.154202531472	0.226886903453	0.333773357826	-0.182926801043	-0.116988169549	-0.111328615355	-0.0271303033629	0.0726828498586	-0.174642195166	-0.030898468702	-0.18897388751	-0.035577471874	-0.0999894149545	-0.219505829223	0.00955192469273	-0.206094411869	-0.0631190526139	0.144343442551	0.0595709861227	0.0495535965081	0.0470256562127	0.233538272373	0.0841949633233	0.096951259349	0.0619896380552	0.152263652409	0.129211418434	-0.0815513417523	-0.181814129826	-0.114189595954	-0.0194475445436	0.115874280635	-0.135594893874	0.144019230555	0.0413947179126	0.0127830853738	-0.103414798409	0.188598836638	-0.218373065996	0.027616773569	0.171927642708	0.240561343497	-0.183251013039	0.15001091178	-0.242707231159	0.000859998956464	-0.0981035057385	0.0204579291583	-0.0497231609041
Dole	0.123334837302	0.176617202163	0.238839546062	0.147270566223	-0.164058914076	-0.0793395779161	-0.16024417131	-0.0423606502484	0.169229891341	-0.159585837742	-0.127656379055	0.0644254883341	-0.128118840146	-0.0611150189793	-0.227172505806	-0.0117397207304	-0.219512713358	-0.0812531229301	0.185593661748	0.0903915000207	-0.0431887586714	0.00456287460445	0.306090031852	-0.193957809377	0.0899514884967	-0.0104556054666	0.0355951924478	0.189635425765	-0.13970393948	-0.0498784491816	0.0320795901695	-0.039989414676	-0.0214483168368	-0.172745774239	0.0863292507726	0.126312211198	0.110244775083	0.0352758473494	0.248007949449	-0.228279550106	0.0235683978723	0.0733761309161	0.204826767507	-0.191762522291	0.116209625181	-0.206938429954	-0.0158968194014	-0.169268336226	0.0570903727569	-0.114820277569
Southeast	0.0541001235127	0.00118936409388	0.303664984471	-0.0824487486896	-0.0400818099623	-0.0531545293441	0.0413027167188	-0.00785789439828	-0.129560115301	0.0021867293718	0.150136902692	-0.0423326532244	-0.0443805263097	0.138098576931	-0.0994355010768	-0.0134964881971	-0.0636119505685	0.160476724642	0.0273080601653	0.0557067421763	-0.103514104496	0.175786915939	0.171773112121	0.233870672028	-0.056677021907	0.374014036349	0.129077032566	0.0419627126487	0.216780034567	-0.101881771705	-0.0362308622821	-0.13129256176	0.109352925631	-0.30437812293	-0.0374620546895	-0.111225942652	-0.030407469623	-0.0205541589588	0.177727132546	-0.0388667317413	-0.160368382453	-0.297891305791	0.331695440181	-0.154140763715	-0.0716107583835	0.0328359117899	0.0761892444342	-0.0957768950676	-0.0215607813225	0.00252307015476
Thai	0.0262285614371	-0.0543983724237	0.115764812259	0.0817527909066	0.136815785145	-0.0359732710956	0.248371018217	0.0476136914016	-0.11879499542	0.0929944381239	0.173560756014	0.0226688346913	0.0714856146551	0.144762631256	-0.241467874511	-0.0236113053475	0.00829731104047	0.292934218569	0.0711311496874	0.0148207587661	0.0203629662296	0.101738522717	0.238619846958	0.144054624407	0.183058386359	0.464301107204	0.152475936647	1.44616783691e-05	0.155736891271	-0.0118121142747	0.027491958275	-0.0130832034948	-0.0457518272354	0.03014213776	-0.0973535572187	0.0249503952255	-0.20387212618	-0.0431351865364	0.317259992367	-0.150943921825	-0.0301267529958	-0.101346518925	0.111712465363	-0.0511269561594	0.132823746524	0.100625588874	-0.000587390298014	-0.171845970193	-0.0157290752458	-0.113658330342
Nashville	0.141435642187	-0.0398259275476	0.48021146917	-0.114377646306	-0.116960039494	0.00429486747829	-0.0746154667037	-0.00379751322434	0.010270635972	0.0239668219204	0.0258927916886	-0.00719539899796	0.0541030617539	0.218967276699	-0.199273371313	0.0613189082061	-0.0455872984699	-0.0639719653902	-0.155944013044	0.0944284484404	-0.0634280029686	-0.0539945098278	0.222863118122	-0.0240221503259	-0.184202094069	-0.148481895048	-0.0313516605677	0.11799985268	0.035964064982	0.0581438395438	-0.14818149789	0.221142524989	0.0997712479471	-0.245317730524	-0.00930238887547	-0.0616854588926	-0.0103864046466	0.10622542673	0.191338856985	-0.184384918365	0.0368246622461	0.0511036006396	0.185262655407	-0.294081901843	0.124647380184	-0.269828514866	0.00546909260625	0.0600649981462	-0.0116541468078	-0.0614043063972
Indianapolis	-0.0184503761575	-0.00504275866566	0.390071543355	-0.227778052032	-0.0366891281461	-0.082010640011	-0.148347116344	-0.00641860097114	0.13044490953	0.028201344769	-0.0579507973394	-0.147684008268	0.0687895484039	0.152363412228	-0.196651331118	0.0766122272502	-0.0479439973539	-0.264488000346	-0.0654349345571	0.0101217387187	-0.125163146749	0.100083115867	0.107121473333	0.0254137239784	-0.166985444425	-0.0597524548526	-0.0450134874682	-0.0734064918619	0.0383250799421	0.0636928854688	-0.176954882192	0.075066401111	0.0789888636374	-0.117980759357	-0.0818275366196	0.0830493667267	-0.0106642039063	0.143937518939	0.24733703081	-0.0332181495272	-0.104062905156	0.073551947827	0.0919558351172	-0.411495210564	0.192198667338	-0.272009499782	-0.0910488743934	0.0400391786685	-0.0500097572666	-0.141477316673
coached	-0.125031468679	0.317181176895	0.362708440423	-0.178475563949	-0.110752445413	-0.0540329528461	-0.0172994831785	0.331536091113	0.0781033143824	0.141521729441	-0.00139161520816	-0.229804550263	-0.127912795179	0.0888770188722	0.126070893652	0.155588820195	-0.0688564234274	-0.0374178936288	-0.0754772063457	-0.0236138915104	-0.305392782261	-0.172489454256	-0.00674867322722	-0.000917718370966	0.142805129773	0.0796998351625	0.0727038136454	-0.0791671931065	0.0820443034419	-0.0728769574484	0.0747742312628	-0.0187411301999	0.130498428041	-0.0596539427336	-0.135497393195	0.0503674198367	-0.0245571879432	-0.0419589833689	0.0918997274055	0.00717619226007	-0.0435748985035	0.0519734972553	-0.0117602868733	-0.300199030329	0.0982318436264	-0.196081702792	0.144371856327	0.111591462056	0.174584044548	0.0287896544761
Cornell	0.0628963182904	0.0639686034769	0.452966067184	-0.0285918630925	-0.0862084051985	-0.200861270405	-0.0704033984421	0.22453391682	0.00432093356819	-0.159379946868	0.084601061265	0.0688466339985	0.0026225465528	-0.0093796051252	-0.147585171099	0.318119701906	0.0566956341072	-0.0840638348256	0.0248851090449	0.159680894833	0.0943607351288	-0.0795586474012	-0.0404682886098	0.0736979296468	-0.000496040283372	-0.012027802705	0.0848525135864	-0.016250828832	0.136682762045	0.0268768571019	-0.0431815169624	0.0665225064362	0.187817903798	-0.0853510828443	0.110339518561	-0.0658339028091	0.0866563949665	0.185535323674	0.106741510417	-0.00348637198437	-0.0100187131087	-0.0505238524897	0.281709694799	-0.300397009917	0.326057430286	0.0121589480968	0.191457098099	-0.0314665845308	0.019292101305	0.0356289152699
dreams	0.067715495317	0.216831021853	0.205148435302	-0.126758552466	-0.0303723971841	0.0598305119661	0.109441770849	0.349271129054	-0.220614577694	-0.000837222603582	0.1038228272	-0.198119939505	-0.0963428091452	0.0666049512402	-0.190928494341	0.254762503656	0.214008305376	0.0639022393454	0.0270732745564	0.0830704628951	-0.192262993457	0.137725526408	0.0396348244351	-0.302009792676	-0.132723462502	-0.0495085124843	0.0523797926886	-0.127293957525	-0.188324515313	-0.026621752299	0.0326368314744	-0.0218873909222	0.248928434737	0.0660298122225	0.120820131736	0.0884357513729	0.0746275987105	-0.0311654709448	0.254991274934	0.0358328063508	0.0142472329731	-0.0453689564281	0.105236794234	-0.00638833757489	0.0379567670499	-0.185257776141	0.094340859794	-0.173100388852	-0.0733826013393	-0.00758517257196
loves	0.0128033502412	0.232880731193	0.130898391248	-0.0594756751386	-0.114145193058	0.00338047861574	0.149338532579	0.442255981087	-0.0862842618905	0.07144492186	0.192331989082	-0.218800550273	-0.0919161954726	-0.0328294679404	-0.133205360591	0.198244617235	0.139836552966	0.0349178494233	-0.02507306853	-0.0172205598539	-0.0995709341795	-0.0804715596171	-0.0348911331292	-0.343984777267	-0.0705337921418	-0.0220763330477	0.053842353697	0.0340622340824	-0.135239962521	0.0182808844613	0.121091429524	-0.0733709237892	0.187704171801	0.00301408372524	0.0593712387162	0.0823937449329	-0.0503237830676	-0.140510358721	0.203727355928	-0.121929696622	-0.0277356768537	-0.0331007944597	0.00376769139776	0.0342006730609	0.16896772248	-0.242666875025	-0.0189616295135	-0.327589993776	0.0386976845911	-0.0180921355783
YouTube	0.0709026383014	-0.062632236093	0.254624367297	0.130492236785	-0.422777891931	0.0457892432983	0.0361189007594	0.0563013738572	0.148494299673	-0.190486535	0.14367658049	-0.150134166884	0.179973775537	0.14554662657	-0.139303810896	-0.00183168293465	-0.146150059969	0.0691772401448	-0.140675136094	-0.168520175672	-0.0524285829519	0.108014264044	0.174744124226	0.0592138283363	-0.0634733952089	0.010890730774	0.303158147704	0.184650620221	0.119598047039	-0.0945522592169	0.0405297190468	0.180902981215	0.162155981524	0.16194372642	0.170420094692	0.146089685184	-0.0287484601919	-0.119811245499	0.169616355365	-0.0849778245397	0.21585180606	0.053964366549	-0.0699721748158	-0.0128897021759	-0.0156084542193	-0.0911366815283	-0.118056917758	-0.0677414522856	0.00618338424499	-0.0553495276352
lover	-0.0778311076117	0.172465558149	0.0694742143581	0.114006783306	-0.0114624905364	0.0072661326259	0.0797647951854	0.461075556491	-0.172783209284	-0.0208520241294	0.169778865584	-0.314016606057	0.0755662440565	0.0252355366785	-0.174296529994	0.0220838818087	0.246646419237	0.00570638879278	0.0672042332933	0.0458857847132	-0.0688787555571	-0.00783746602434	0.0983128433645	-0.384005130135	-0.0527132736551	-0.122366966387	0.070181892835	-0.0134692853908	-0.0782408739198	0.00268961685589	0.117386898428	-0.0486689788884	0.0679758806408	0.0799022368731	0.209804005143	0.037018968177	0.00928864554567	-0.0884185039984	0.0834420914032	-0.0259454083738	0.0808840676525	-0.141375224898	-0.035334210894	-0.130161664652	0.124605145785	-0.174564833714	0.01852355724	-0.264422454532	0.138729106874	0.0747361108844
Hopkins	-0.0242055753814	0.0880036166198	0.428982071808	-0.134079801495	0.00492410439821	-0.249096299811	0.000510484145243	0.224988400866	0.205055634817	-0.162070160514	-0.0254407901602	-0.0250728993516	0.0714196550829	-0.00844116904694	-0.128071987738	0.13156801987	0.122442046323	-0.117790295198	0.0624512471737	0.186693177889	0.0745171388385	-0.102054051048	0.121909816694	0.0712161030948	-0.0205373617958	-0.0289189981247	0.0656128979308	0.00487312728036	0.167525068608	0.035549231796	0.00452947733901	-0.0985890329668	0.127158677417	-0.126380830765	0.250946804838	-0.112151798183	0.0689877257262	0.0955364661122	0.163937420258	-0.0261088399425	0.125238301655	-0.0539858372595	0.28031354604	-0.321251380028	0.200434897743	0.00174213409064	0.134501877771	-0.0437904136883	0.0101141453693	0.102554197176
Memphis	0.0196615723921	-0.0507353322123	0.384729974539	-0.142909374099	-0.0498143035723	0.0273471362459	-0.05602885782	0.0380274436706	0.0152037278689	0.0908694435379	0.0658092263481	-0.126142698524	0.0652720969444	0.21391722221	-0.217577281281	0.0942764256879	0.020053050755	-0.154261258042	-0.131761467519	0.120113668113	-0.120121906294	0.00414083931685	0.254727852962	0.0745318124309	-0.187190256232	-0.0481897342716	-0.00639744186673	-0.0796974814689	0.165872809451	0.0504937887443	-0.145512639307	0.121702977999	0.131978296444	-0.28751844971	0.0301909563402	-0.101121695076	-0.0811882627095	0.0988786031429	0.119305667317	-0.21570424844	0.118848283506	-0.0244034693975	0.254112955129	-0.245604891281	0.181723728823	-0.235301892548	0.0303118928378	0.0593439018696	-0.0500700167117	-0.108715320829
Minneapolis	0.0310564412972	-0.0446497377903	0.46311070465	-0.0804457556593	-0.0130838481078	-0.106111272294	0.00173819238147	-0.0206999750534	-0.0796420787091	-0.113709069211	-0.0271771119368	0.0330967631181	0.0907759909999	0.233616532454	-0.0844110465339	0.167829427201	-0.0263630058323	-0.0884793648115	-0.203117260824	0.107992312486	-0.0547492675966	0.0219290350846	0.183913079324	-0.0018902052061	-0.210892669399	-0.0761666420511	0.0840826861913	0.129419484025	0.0670711553713	0.0882271688987	-0.112748322877	0.159458924761	0.172046597953	-0.103156661281	-0.0673581151318	0.0273765300082	-0.0181887611147	0.135993643646	0.12809940592	-0.088588712914	-0.23280369049	-0.132266959181	0.203973399581	-0.368505317816	0.204226227564	-0.1371948926	-0.0835653369316	-0.0398810860005	-0.00275614104706	-0.122222419461
